-0.9269300005376779
0.8481388411852114
-0.9180205947715804
0.4446689371426292
0.04179131028684487
0.0036170081042135203
-0.22602753886864854
-0.6386991046019824
0.15335699750768483
0.039449876319941915
0.2806341454252219
0.15149262611347444
0.041590323999943
0.6641033603014457
0.37053261211171784
0.934570471312625
0.8475165233107703
-0.8822731115850657
0.40489406829157
-0.5784933553647837
1.0447761747997386
-0.4777144710166945
0.6053075088050847
-0.18500389380598753
0.7308179094278928
0.4313480581034376
-0.7397952606081343
0.6384753839375459
0.4408755759593494
0.9542908454525055
-0.3429665025951149
-1.0665912144696625
0.2601144552125056
-0.6748365916887371
-0.7828017577402225
0.30686531380687043
0.8147134523537553
0.22640365029033263
-0.30261392198894244
-0.13301706016805367
-0.20803910883351812
0.35769800805619895
-0.23424927988883804
-0.2780028936419643
0.6191021503304188
-0.6216921345075054
-0.44390896841649924
-0.4284641071047347
0.0453378541449254
-0.6214071975122984
-1.0410866827079057
0.4138982733967891
0.62301887317184
-0.2772802446365753
0.7018861608051868
-0.6862424495221547
-0.6712895112337185
0.1933867464757617
-0.4478785733037417
0.8626953443529115
0.6659890693906341
0.0046799129857063165
-0.11663144217616285
-1.0007269862597779
-0.2939944500212043
-0.7682696350010023
0.9028172927725489
0.3202374532019
-0.05605464084860422
-0.25620929854336977
-0.4928073569879965
0.37324098844717757
0.4731844927869469
-0.6720984461954197
0.4118365546752174
-0.8823520307909866
-0.8396403145705856
-0.46570098246230796
-0.8084836798438056
0.34695847315791367
0.03381281336305322
-1.0098408432002672
0.6973336863827907
0.014074247294113756
1.0784756266009747
0.10690443374303586
0.28809869894858947
0.6129397426321463
-0.2699677531450873
0.9842988335332606
-0.15788306215560557
-0.4875478048118748
-0.07558315578898837
0.5185334527003119
0.08881919730549585
-0.832690526732403
0.6400485365323955
0.1371096451082812
-0.6098073019500424
-0.3479694148729894
0.8270676827401972
0.40160351051371246
-0.3225561950282287
0.8540888707318883
-0.8383964761593454
0.607619168392215
0.6136388675856286
-0.6490329871401725
0.40255063906980015
1.0817180126138677
-0.3957076350609385
0.9770476320993515
0.5895939110505704
-0.1540661509572418
-0.010009965258447398
1.0146872252217418
0.7223448740133814
-0.6543077094196149
0.7007926938877506
-0.3501988824642815
-1.0978089420286437
0.2938667565366834
0.5004091064565346
-0.06111228418926304
0.5536876147247285
-0.8814123783161445
0.5904041061752803
0.18938904277640292
-0.32262537035456024
0.3594832076885771
-0.329717988746784
-0.7783628534632671
0.526211411679892
0.932333889944666
0.8562687585366908
-0.398477326775818
0.4863009234117905
-0.3883610943699922
0.388881736400654
-0.48581242134239694
-0.44389576598126124
-0.1635613934391778
-8.062013017367905E-4
-0.45111231314063455
0.3732547270034761
-0.7009994637022694
-0.7772931294553508
0.5996983463270131
0.6825312552615102
-0.07448965838245433
1.0296907778401445
-0.3160721866661425
-0.22619236662569034
-0.9977235260949211
0.11275580640862758
0.07721021027894863
0.42200582739955844
0.5450164575738928
0.5471996079115766
-0.1348907197674483
-0.061998625883236916
-0.7264682674133089
0.8484376795007963
1.0494056283254232
-0.46273695262093
0.1448189169729738
-0.9393460271401745
0.7453735582809365
0.37953747367966695
-0.24022678434878994
-0.774436673869137
0.7118693618552655
-0.04595445877196737
-1.0630567826436284
-0.5761641918230107
-0.978648322479908
0.08755700128235465
0.492151353832285
-0.6651801823304309
0.6969145698186262
0.18178429816519476
-0.19864483838662572
-0.7092014268691382
-0.5481143817605852
-0.15450468276557397
-0.6469889963773443
-0.1083146207448261
-0.2231112761764075
0.16629790523057875
0.26194304106590266
-0.6526607198803314
-0.3017334719247214
0.07984254828135369
-0.36765799653978326
-0.7402974289041317
0.8363944821492132
0.8313479528572724
-0.9204524786532167
0.6698582221551754
0.4814492536622447
0.7247057626402593
-0.927898849648827
-0.7485644978088039
0.46095849940789835
-0.744814174595189
0.6035631739433497
-0.4621106992375849
0.11961458664236803
-0.7932570621686692
-0.46012614903377064
0.5157520860330153
-0.23646059019069957
0.07465495368626156
0.9101852984124956
-0.45683385249359443
-0.1285010748979002
-0.5213254838089281
-0.251391953816593
-0.6669570912987421
-0.036330244681169716
0.40187970420624874
-0.3330252262216729
-0.23491186034757613
0.4485859115701805
0.3782051639097913
1.071583952575298
0.16752191413250422
-0.385097249439318
-0.11240974252903432
0.09705080050482016
0.27462016699124386
-0.40749812745776015
0.8888319687646948
-0.5046382115170939
-0.1838658894077805
0.8057036983452209
0.5266980122240641
-0.09124960957739799
0.9003875615319016
-0.24239714473870036
-0.3047862429097343
1.0237245137481223
-0.34636623719593995
1.06780431095046
-0.318104528825727
9.074496866093542E-4
0.4430545344904415
-0.4621288137945528
-0.5093696295376531
-0.4042439473984716
0.6556962329814223
0.679866321487927
-0.06473239326674109
-0.9314361225850876
-0.7670666962528411
0.8459003906335495
0.0590691814170802
-0.7083256024401121
-0.2974040100167425
-0.028238296842633917
0.12674183294047034
-0.26199760529937505
0.7297096076635553
-0.8608251657108529
-0.6613634474279944
0.9505120080800026
-0.2219742837562091
0.7380883398562246
-0.3156913660142242
-0.6254934083082513
0.6555714970701392
0.8114532099402332
-0.7595626319450857
-0.0031679925819545485
-0.5702193464430787
0.408886172960633
0.13813418603798366
0.7051210653330129
7.290821662693237E-4
-0.2797280594221081
0.06314076328270812
0.44752994062545937
-0.4588913073887151
0.2190945372886337
0.47373327945004173
0.9260917805795617
-0.026609569252665777
0.676559249630386
0.6110361556694426
-0.5426181013006721
0.018064570505035293
-0.9031558553223062
-0.6812753389834869
-0.1448269605611734
-0.15524264998046222
-0.6813414641391433
0.5720799004320283
0.7374852372665481
-0.2650226693879094
0.6083657651888477
-0.4754366126417999
-0.9782368966603494
-0.8953042618291496
0.21250377001122245
-0.6492204777194395
-0.2042583797873796
0.7369208494086228
0.5426170667301344
-0.8021000938174814
0.2378899481736214
-0.8611230713554248
0.4328898177342364
0.15332469415702454
0.8101497664674264
-0.4346462948246179
-0.25885055111324706
-0.7054395295528324
-0.44298547924388876
-0.5607560337279189
0.456388011905122
-0.39200387300612727
-0.9811778722186522
0.6522402782103263
-0.5689742815575687
-0.15353724867194418
0.0034637393127425753
-0.4568842035907663
-0.12627980519278204
-0.7588346986544132
0.2595374905029939
-0.7720341262937247
0.8187249201280532
-0.5978709534258567
0.9683239378297135
0.40936393988324826
-0.05759426690619163
-0.35655491329301814
-0.19723888131375733
-0.2990504231668193
-0.7878928620724208
0.6928795986913907
0.5778919412509824
-0.6455627450788906
-0.6000231759035043
0.5502575495588974
-0.9668863449132967
-0.13387159148209493
-0.6399965236006271
0.2128060810327732
0.08999939037375437
-0.6161213879193896
0.7941152556213829
0.9305273361187945
-0.6536925427233923
0.15275533094944968
-0.5245973962995532
-0.280698812080723
-0.4519830978842241
0.06120198901425428
0.46633994941323637
0.9930125322196064
0.5139180612977956
0.9309023735803648
-0.6180362596728297
0.11221642007024979
0.5532473405806438
-0.5776487867742209
0.47245544328455874
-0.7423517715494565
-0.030067606357832188
0.15802561413451544
-0.825582731789568
0.8882688594441291
0.5887629133594174
-0.6804903012550012
0.9068641064135434
-0.1526939411270365
-0.409216557029521
-0.19453359513007862
-0.4172050565228784
0.9394917820103006
0.08535442258744363
-0.7843606419989102
-0.38329258721175663
0.11918905068701957
0.9955212092539372
-0.16814841752760679
0.3353724530806299
0.2647110707960708
0.906638584128793
0.692038116548223
0.6871400674108659
0.3025119443063406
-0.971044633687483
-0.8997485463164466
-0.7888701491912256
-0.5500984285028542
0.7223910229566516
-0.6931692226372299
-0.239528982006918
0.5146290492351546
-0.4564363276294472
-0.36493574296142856
-0.4003868314452135
0.3280216525864963
-0.30552921253930054
-0.2784648557916394
-0.7812880617552347
0.8856647175048058
0.4896945622401086
-0.013135986426779933
-0.5852263491915612
0.6667997415019902
-0.2504944436479069
0.31965427929814627
-0.914658917642233
0.9799751782217927
0.6081832928339073
-0.6909209964183043
0.48841412792540234
-0.46571801819531183
0.49879020691004516
-0.72674082549294
0.30349456181970724
0.7924041453661993
0.13944959442100308
-0.959343811777746
0.4248732292893329
-0.6936209421326839
-0.691469960271975
-0.8960271464832334
-0.08673347413290686
-0.6787051180951731
-0.2159988263628816
0.8039563086229549
-0.7784288040189162
0.9612401780938862
0.04442368085803983
0.5251478820281459
0.33187354797032365
0.9613053582304296
-0.8997384275084143
-0.21711216505593176
0.7168852124838965
-0.6458868615824204
-0.756116039334433
-0.41517949127279913
0.5118688982502091
-0.1495577870367217
-0.1927868271290675
0.2751622094635464
-0.5144906806821538
-0.3792222677293439
-0.755184197741894
-0.2449072571917318
-0.34535417617479175
0.21163044304885853
-0.5181137175233617
0.8225676815451665
0.9635675519406977
-0.7792975989170208
0.3971495208212523
-0.8469097815156175
0.2951117319030012
-0.710491245686601
-0.943187113157383
-0.7506634541222688
0.07422845787484733
-0.19956270246968136
-0.7275426988851865
-1.0057305490649069
0.23348767960569275
0.49381965842499376
0.36988329806930575
-0.702881343929463
1.0087945526104183
-0.42468275106942294
0.812154884688193
-0.35973384603045333
-0.24304818127146371
0.6000413250414324
0.5602022648758409
0.06177687800465775
-0.9011944959432444
-0.9922836683257251
0.11518750098673515
-0.878880844610114
-0.24139633652337725
0.6895456015116694
-0.4127684028220939
-0.7962762444981668
-0.7228865383361152
0.31825186855634247
0.6766747909166043
-0.19782567121675268
-0.8114167910428481
-0.7908619872856478
0.5784768687279451
-0.08706619692731143
-0.3260205428446018
-0.9075362838965074
-0.16797693195856947
0.19728107400654207
-0.20794794480248388
0.4918204172125338
-0.1934898967800897
-0.04530858620255714
0.8367627831890342
0.6138781407426782
0.5903937670411752
-0.984661161038277
-1.1306793921907257
-0.3150020656521111
-0.5351830890918313
-0.25393069057795303
-0.46957004198862234
0.5617103237112964
0.3393995191671444
0.7774950437511392
-0.5246533960459276
0.749789945392437
0.08519897958300664
0.9555411578192361
0.3891041134247503
-0.06955454171943164
-0.10371751503876206
-0.04146522993669998
0.08932651967453947
0.6258325992756549
0.6220843338573833
0.029609337152863544
-0.1395328438261983
-1.0424597313205621
0.3653693225834091
-0.12471732349298174
-0.21284428081022166
-0.017782943396051496
0.7118281333449193
-0.5129082513765051
-0.46004707276828594
-0.30983344884965314
0.3517126956013072
0.09643111011570613
-0.40764593838717156
0.8856861782199307
-0.2727811318902782
-0.7895460912812589
0.2414531971489977
0.560356990423805
0.8090334955248345
-1.0072007766727353
-0.8320772783040675
-0.9196198916017149
0.48672089439937816
-0.18623253990043523
-0.05836297303339546
0.8866495495489559
0.24092485234514818
0.7304681863466004
-0.024802747569965627
-0.31591399950800964
-0.8272705576383247
0.4598468022102253
0.03915438423260251
0.8238310878363061
-1.059793247938111
0.1810443685348788
-0.6705950077092678
0.6889358177511401
0.18070269128278996
-0.24670754598814443
0.3160908740163254
0.9574516284884473
0.010030432322052462
-0.4511383791556731
0.402328715675893
0.2565104897758167
0.3819310909113346
0.486850439996492
0.922877500435522
0.10927920230150598
-0.17907175328356553
0.038336712095798
0.8220879062995442
-0.619763496249055
0.6318584108513449
-0.012791328149574234
0.21922866001381974
0.2710611921506866
-0.3969758238560753
-1.0298872707793936
-0.9370471930875772
0.44187010259687476
-0.6740824853514666
-0.08713679032708567
0.597947563026683
0.7874693225782383
0.643152635905376
-0.8447298472565957
-0.644205431035697
-0.9132182742648843
0.7111907953329031
-0.19171402292798567
-0.6263500979621546
-0.9457612258384609
0.007252128019747646
-0.7622952384513074
-0.5178889278035638
0.06758031709655232
-0.36786902292871937
-0.8375342963906135
-0.8223970186302103
-0.5583166949490282
0.16545188374903438
0.3362599655880539
-0.04244398962424493
0.478789538104837
-0.8871145677741928
-0.5201829157404068
0.38484563021054535
0.7175421616280206
0.07573293655480871
-0.48801138891379414
0.03426575880747185
0.831014333100493
0.5294102216820229
0.46866685644954004
-0.44947170409880255
-0.1677121846012284
-0.8034539504666594
-0.769498811991703
-0.5772274207919914
0.12258529165433597
-0.08661134831224433
-0.48579494174461924
-1.0172131849038528
-0.15027900202054018
-0.3895939455166067
0.7412926823984243
0.3744292968556916
0.2588543997160391
0.9836778485964067
-0.8177708633962759
0.3912340021431248
-0.2989522884409557
1.004805281813713
-0.3343358723406213
-0.4431011268733938
0.8827124242968177
0.05023116745035247
-0.8659371235770095
0.5745930551054534
-0.25067762998808507
0.14189907438089078
0.6367114203450784
0.40756732391274214
-0.7010457716574596
-0.9876458621377784
-0.6503453494954203
0.6283019251077786
0.46674502100000204
-0.8808924044321826
0.7100714363786623
-0.21932782713110469
-1.001434940401441
-0.5626136293609745
0.22225510542042226
0.8605732474776515
-0.5323576708195796
-0.34979260300341575
-0.1259417258316979
-0.5321714183904384
-0.8104497627185091
-0.6534492469397328
-0.26511960458534417
-0.9283157095305524
-0.0791765481762873
-0.9970158224126453
-0.44163263265535607
0.9494148881267439
0.00992184268359119
-0.5785158640261987
-0.33755836113563736
-0.4350817976759064
-0.3860658993622127
0.419235659066294
0.49361637337932174
0.6012159263899972
0.3458859311545863
0.6090159871448109
0.003111041287305824
-0.6874312334716434
0.20690912417023008
-0.34676374185949094
0.8994541228053636
0.6825000115901458
-0.7479723951700399
0.6604253754504409
-0.22046855024669337
-0.2214912151754848
0.44964438457430905
0.08911274600868585
0.7194110624929729
-0.2139896283177498
0.8556387953792988
-0.07564913043436178
-0.6567058272921921
0.9384721057419022
-0.692472629517938
-0.04344384801283838
-0.3108282598514512
0.15305327860280823
-0.8686093370342107
0.3504904092403176
0.09837947160466753
-0.012500560319572696
0.41675547273568836
0.6306590599884967
-0.3726562393035371
0.1076264202005844
-0.49141954596764964
-0.20517794315742677
-0.04993017511109382
0.10816499219257683
0.9759670335561211
-0.46564139710989894
-0.10124115678488538
0.5783358215098648
-0.48536307432886605
-0.7169587668020722
-0.7547435438860015
-0.8812361477488772
0.764263469882683
-0.5551355211536411
-0.2200988206292155
0.45949375675754706
0.16953627068268132
0.44910666129386445
-0.1875994102489045
0.04049088753788303
0.2983600779853778
-0.9497900758338682
-0.09716610262778458
0.16482692861288117
0.020767395758876317
0.09147293516547113
0.8616933501353617
0.3398569485569078
0.3179888789974989
0.11264186615248066
-0.9705615888172584
0.5058644513104795
0.31035883344398746
-0.3988641105697219
-0.6454773853773602
0.7247212648936678
-0.7237685512358898
0.1837922827908885
-0.8500586399338735
0.555463719912404
0.48639930126766223
-0.24372215637114059
-0.9656310542137325
0.5302794000971705
-0.24880329632135964
0.24050619650721286
0.5243775880892857
0.23744054787202487
-0.7437009064643245
0.22492634826635127
0.7181879018248296
-0.6240926944921639
-0.8287424841025686
0.4647883953790704
0.7031220075068345
0.2047174362121134
0.5596224316231717
0.8797247815855962
0.1837214569341327
0.3238353558976529
0.3989016330542265
0.6139001176976824
-0.7897341751976249
-0.33084973350380625
-0.43139705276836904
-0.8590233070364921
-0.6261412244030613
0.783014552456866
-1.0239088826842742
-0.33110639173100725
0.7150751175900304
0.983512646925867
-0.56389728982488
-0.7946438546171544
0.1055857775168079
0.792314974716663
0.5520586563722532
0.5246548556005504
0.030765539523748053
-0.1913152414006507
-0.08664272692879131
0.8249239329366526
0.6389194511356096
0.11482526338534478
-0.9228393293566619
-0.5165172428373737
0.7152786301881865
-0.7671067887323582
0.9214610927327398
-0.10849599819428998
-0.5081333151699373
0.6515996621807124
0.737524265828522
0.6358504647064338
0.9363043956272609
0.38148465146858773
0.2898603954225664
-0.6050012071485275
0.7314030114026238
-0.5367772541337402
0.5154930950092912
0.7505466483034503
0.3478653026330329
-0.42898219020834777
-0.5779088108191268
0.5930143653236795
-0.8011388730986666
0.8386656015790095
-0.24745324152422518
0.09438899599733944
-0.9750015206345716
-0.9989321666341645
-0.14041734591546792
-0.7902660722946067
0.8916730741378658
-0.9712259888618511
-0.4011036833007704
-0.7765965585853145
0.3361468001482045
-0.08136999370588897
-0.27852845332363546
0.742111649088247
-0.9490261878006142
0.2826751380666379
-0.6305502074888016
0.30712180722203153
-0.13576113758489664
0.07032093403585754
-0.7725610076413618
-0.7466885103256242
-0.02851160946876615
0.5364840369150222
0.3444595867487823
-0.2125600462488746
-0.5562147889938409
0.7912214163511617
0.8133641219513901
-0.6234709313055055
-0.8135383743274083
0.48404592103156663
-0.8954369506015575
0.11818918958273655
-0.20123780036084343
0.07615308362337692
-0.2638213721841633
-0.9560404064511223
-0.282967422182165
0.24910389377600914
0.10484494816913645
-0.9645661788168634
-0.11894917001780289
-0.8223768234047921
-0.7652497419400869
0.2394929164653626
0.47430087113983327
0.7468318164557227
-0.9859264789467327
0.05543737713306907
0.14294400797075324
-0.6623418828608942
0.9210745886295992
-0.030671858925606754
-0.7878109095931336
-0.8382054511835222
-0.6840409852884445
-0.18971332353132841
-0.19984854995894727
0.3070514504824838
0.2123782988474387
0.23341029465663038
-0.6233857335976863
-0.4116207221549711
-0.24991885348356668
-0.24244458342494335
0.9696518860202402
-0.25535529388747585
0.20831809623111466
0.8119944217910235
0.5869856372919724
0.057671657439921746
-0.8101972648099254
0.5436332938086361
0.21868278447174458
-0.9650989460144269
0.7451246807271305
-0.13367715954431092
-0.9890458378470991
0.23359833857023804
0.4358079310535503
0.5002847321712145
-0.19879100200197786
-0.7504877278844708
0.7805869610931975
-0.9214130503460674
0.4296704058738902
0.3640783292457666
-0.6653143500181486
0.5226663084616581
0.3558178907036628
0.08829168272409735
0.05362471253476048
0.6213599661108445
0.6423625199872239
0.35296586958550413
-0.5090237071458784
0.5424360316618116
0.06604432158101213
-0.6625612228595645
-0.0658077963208979
-0.43637942712667505
-0.07858877171018783
-0.42857089970342455
0.43789844579378023
-0.516226480893943
0.09507464244456054
0.5947813325052993
0.6548253613457578
0.7544722999123541
-0.6100772878661453
-0.3852076329752674
-0.8273967501651542
0.817728307825176
-0.28818006196129253
-0.6092991695579321
-0.5850521576979698
-0.8309794991344963
1.0052329622904868
0.16539143075883928
0.42286056505314357
0.0724568734314505
0.537903227095387
0.8386280351075379
-0.5393777113475862
0.010432748520353642
0.963118948349912
0.9651762653292555
0.9691739238508216
0.16490706899745036
-0.18185106751121827
0.01350327141805794
0.13319393549697622
-0.9271150108838275
-0.09158868117971397
0.21865700351425965
0.5936876964760835
0.06838351730276981
-0.18993361034520184
-0.335897481548056
0.910560698310289
0.11955745309876442
-0.740067434349881
0.9947503566919393
-0.7984060553128041
0.7108863481719615
-0.4037169543261304
-0.8642771928207658
-0.8816891252465654
0.8263299526920593
-0.47552962173075725
-0.22081527777667032
0.5483115389658317
0.6883258953895128
0.5709594725164389
-0.9563096068691616
-0.07974100025750556
0.8172295398686629
-0.8125636495147877
-0.9808697181304153
0.7817185004630907
0.3771130090803554
-0.4475549929731495
-0.1960101921364521
-0.9285281204540903
0.0981938252307184
-0.48408937039248356
-0.004887527864246177
-0.677885220558081
0.2088693067789904
-0.5360204351281697
-0.5128974585533604
-0.005015432331194589
-0.31964347503930207
-0.515800270707605
0.7944184294261959
0.9362893022417416
0.35874789265782503
0.33696050409428213
-0.5661422154884431
-0.765814010384456
0.7011747853694682
0.06842448868684681
0.7782001957238492
-0.47397544696189314
0.8528475698624787
-0.3863216782566119
-0.7055727356998072
-0.33766517407252516
0.9763008459777107
-0.13908074293318795
0.7359954190581639
0.9053663473827713
-0.958824505221235
0.27764948136052303
-0.09694252401042491
-0.2726778369637395
-0.9908336991691449
0.61108462398205
-0.32077688777350155
-0.43652256843980425
0.8805950338712492
-0.4099915339951221
-0.2858752341540769
0.4058143832118674
0.79056347277995
-0.9156077404485232
-0.6570590477804947
-0.29532892881182016
-0.8819226465277253
0.6856475164315073
0.726548231872749
-0.7420434510847225
-0.4546910723409763
-0.32320906552728657
-0.6304102262154885
0.22225347569621445
-0.05564623299380944
0.8856000185173514
0.44132546794446514
0.569898144532476
-0.8985170195825132
0.12460801709460512
0.6542085134099971
-0.1378971217592555
-0.706434212646033
-0.4954145629071989
0.8477096673447637
-0.48293317171229866
-0.008507106162689126
-0.7535633596721545
-0.12001085493354458
0.49137305857520297
0.15823687179613222
0.38737072054527966
-0.0524046645882692
0.6512065501297384
-0.07947387190829103
0.1666696434283952
-0.9665544173276619
-0.9834395079778604
0.752864877403729
0.8142604553952728
-0.1740758296953544
-0.46770047943000814
0.7364606445727768
0.9672490737012365
0.1570098554611865
-0.9468467471781341
-0.058051946927877296
-0.9959717671074866
-0.22507606994446028
0.8254158690481279
0.5336264640863535
-0.7874755417731676
0.09686720094658008
-0.09366947670707249
0.8042567926040922
0.8986016541357522
-0.5200068586785058
0.682841149987655
0.02329100330031797
-0.7074070111739856
0.503842770713395
0.9345965530134901
-0.2822642162558484
-0.5736146959244246
-0.22495670919098387
-0.26820486596596504
0.8036806294924326
0.03043312991815461
0.8451531583539318
-0.1333378632875173
0.8478478495460864
-0.060466360085905
0.9751120849433672
-0.511946399116215
-0.3376493573241599
0.4981451035290203
0.6848341185740583
0.14188510748684235
0.42217334890600333
0.02048693895880782
-0.7059407749609057
-0.4842139205411524
-0.45628359172961064
0.48761007402754797
-0.009342357341696094
0.8445839663901392
-0.32590126332721736
0.3531066046310223
0.3551874470315749
-0.8437401106479465
0.31317650448048184
0.6028410812853812
0.7486209542760736
-0.6681697896595578
-0.14782667941620806
-0.13914232158792741
-0.6954090291024699
0.13150967584018178
0.9603127935855182
-0.7343834905256348
-0.5200691776520758
0.919957929681724
-0.9190396795879652
0.7567190043142131
-0.47970987016021915
0.8773142695139797
-0.6549616264155645
-0.9590496882888905
-0.593039085577481
-0.6846559266026533
-0.2522197351000144
-0.1472821839472234
0.47004626230924434
-0.1108308646535416
0.17576024907430346
-0.03390557787823654
0.22077166187473451
0.33663306126691367
0.821764956801579
0.6004281448430058
-0.31710996676471187
-0.057556656151794366
0.26959648583898166
-0.4336088650215711
-0.5381425618844912
0.011495545339634566
0.9047618533704026
-0.9033771696552877
0.18715990127458437
-0.7074430276221815
0.7699702457164737
0.5541425115865717
0.9492846991639723
-0.9722678552410611
-0.18765073598556326
0.24514932915020093
0.07061893431841085
-0.6386337601848625
0.6243221189001211
0.4559793520918415
0.4159425397392359
0.7856915968085028
0.798388982341742
-0.8199192172335987
-0.5423316656143979
-0.9572741808226015
-0.48948614283809916
-0.6913224699894802
-0.5655238209388065
0.6646369977423706
0.8274480464994105
0.18761168125631156
-0.3657300326517372
0.8746817493928185
-0.18400387173542393
0.3648812977601709
0.32449581793472926
0.3922360810404384
-0.593224860556335
0.06969380847813467
-0.828368238612686
-0.37668522253564785
-0.96434132721923
-0.062439408588909284
0.6700347487721529
0.2663470685131558
-0.8120689006674187
0.96270140301661
-0.8787833909768927
0.632759663782396
0.8524720182615063
-0.8717160155827087
0.7106380159635766
0.42783812945382427
-0.6212895272209974
-0.7531361496704506
-0.7215739121562355
0.4392282741406217
-0.37225457386335997
-0.6023080806480607
-0.5049677405963178
0.1528606264795076
-0.6651955207745086
-0.8758205392098719
-0.7357888213228303
-0.9132183986275424
0.5518712235175354
0.6164613522544575
-0.8717301023110977
0.14673164666721994
0.44677099763983574
0.8778922476692304
0.11569692405034417
0.9399894949693398
-0.9870299378959887
0.5762905950045162
0.0378752107476283
-0.49149509552641263
0.8528496302409156
-0.9852481663834357
0.4075672871442781
-0.8520509358463446
-0.7554209335618921
0.02996311344457329
0.038779899041429394
-0.7519552129691829
0.6464055964310391
0.9856637310703127
-0.8021459151388665
-0.02692868070744697
-0.3467975369689193
0.20710194275769375
0.10631500672601837
0.7275110492653942
0.9504859434184465
-0.8910820351099897
0.21113198801956945
-0.03883202087597826
0.9994555219736161
-0.6095752296708317
-0.19689979493196555
-0.7829088873625208
0.7385716326423899
-0.9882206328029285
0.494901406465334
-0.40386712580171086
-0.8176138232229361
-0.8942300423777685
-0.31271530339676995
0.5682463722086406
0.012382296265222538
0.23292762708738618
0.12131459799354975
0.7309085083963244
0.06976603147669792
0.406431732923072
0.6300207624332126
-0.3394573852469028
0.6036814514702183
0.5080190578698413
0.567266995680959
0.05460948279237332
0.8788716892633774
-0.4389246687618089
0.4701026132738604
0.47647770745374873
-0.40534095702779666
-0.1585426766209356
0.14496574799729378
0.21678854345936102
0.6186722517463878
-0.041789622739896684
0.9825038906999785
0.35040886993349457
0.19253183107724553
0.2438848837912103
0.6817809133602244
-0.3325772756853075
-0.1767861950541823
0.07151399516295633
0.5779831917132457
0.32633723417715416
-0.06667898983106095
0.9769093411572642
-0.4227001232056143
-0.9351256484572665
-0.4863007703610481
-0.21691916867321315
0.5145155838089003
0.35365774462774024
-0.08247272987071574
-0.65339642108505
-0.5438380394952411
0.7526245888822347
-0.1239483068095726
-0.03775508103628957
0.8785360490285337
0.2664024970617579
-0.640035879924058
0.2966211049243501
-0.46395426884414676
0.1642294697051898
0.4085838004022103
1.1221317743597203
0.8778074771805867
-0.2391845349527951
-0.5146913152240833
-1.012598814606253
0.7736098603998488
-0.7718863249597643
-0.8747674179109279
-0.1842183204725401
0.9330502601660889
0.49039834290613055
-0.5955231490059033
-0.40110782750326807
-0.4428386732716832
0.9575555906511879
-0.1670482845085772
0.32925251842947856
0.4198934407159569
-0.8522274131801519
0.014210131282220094
0.194110617754505
0.6135863863554075
0.24385815194348992
0.392674943554897
0.18760742896506666
-0.7330858413689125
-0.6778078613328189
0.08554799646050414
0.31994321371138945
0.3785902858716469
-0.6555363367177657
0.9431917474199475
-0.23788329496204685
0.378032315576701
0.6784954205605342
-0.6179112820172326
-0.24060725965559662
-0.2862801376569016
0.8995504286800347
-0.8837246630019865
-0.37237512555791347
0.07059194735876928
0.47018938164477253
-0.01773113226506728
0.28636636716394803
-0.39788931965946084
-0.535903145408603
0.897742775116192
-0.56761923244429
-0.39751481990190224
0.8381440445956767
-0.1565868072941361
0.7945908417131993
-0.16174419706192397
-0.31518776503707596
-0.27149500008530536
-0.5919181898355018
-0.3340777843961434
0.2149470223754538
0.31343228829884234
-0.09319267201241019
-0.6554157497316374
0.32110627489364835
-0.24574873395391478
-0.6690759261078072
0.28971475882645104
-0.2722040904681358
-0.868053167292693
-0.6096633263075999
0.796761194530766
0.3013939118129389
-0.16084061542928385
0.3002339920742938
-0.19156278042795782
-0.17246343750607354
0.38325698263750996
-0.7939597823670802
-0.4410989886451059
0.7715877975919335
-0.2921958097841232
-0.17207599367913712
0.09435135981092257
-0.47569673820596464
-0.7135623325578174
0.45584499160689396
0.3919150805812507
-0.43634042519368554
0.7373147798020044
0.7819026861831457
-0.0948962108993008
0.509813779020118
-0.2429847513623495
0.08671485448179643
0.6964912814698054
-0.34525533976527384
-0.8612946477049668
-0.19701764222703372
-0.061226138882977565
0.29736601920598704
-0.1635131084742416
0.9814731487334025
-0.6477496050485188
0.2585754254760585
0.9248257144405333
0.9113622089294674
0.10586853132484221
0.6756624780094995
-0.9230815576461565
-0.37875553666417544
-0.013918606316504075
0.028533138786976373
0.5083284616989061
0.24661373135443113
0.8426318329182219
0.2669413819471104
0.14550121598393628
0.377361984201103
0.7766149496823715
-0.5335368332645081
-0.48796022414684964
0.8231278586297806
-0.17286713827528274
0.3923874885510063
-0.44573429701040573
0.6472222366868602
-0.7412179462198858
-0.7421775245368107
-0.2229783977535582
0.51559717277743
-0.21952044036324359
0.5490676876051442
-0.974654600590081
0.7381678151289723
-0.011109058028161414
0.2868165677789486
0.9312840443788845
0.07963353271807426
-0.8198249321509868
0.8413608344111051
-0.8152304790058641
0.596781530002719
-0.021256670011135084
0.6953029708982843
-0.68016129162767
-0.8032226489764379
0.36293069052433274
0.6908681497297569
0.380805385485723
0.9330440662438729
0.38613153322110727
-0.26475973786358115
-0.3095222585142645
-0.25068225773008485
0.45463033759338944
0.40376185959996236
-0.4428167208803717
0.5883679552696692
0.5643260058332651
-0.34390281395055955
-0.5074282608737708
-0.6833558863640103
-0.03691988370154036
0.22080395758360183
0.7633632941641986
-0.2634043793398874
0.7213964719650334
-0.7606781708460862
-0.835979735082391
-0.6966163527813541
-0.49319842061468133
0.9341266723030776
0.28586784650801284
0.08448227242747541
0.16561842167388813
0.8472795674405365
0.29608668629266494
-0.9221531353114573
0.7292908620448905
-0.5247861895982857
0.001557406180262814
-0.9838885605157984
-0.5424270075478786
0.16567006249219274
-0.14182634855958143
0.24749131230251264
0.14205091859736618
-0.6430556300438806
-0.5267315702181516
0.7638401541819059
-0.5433415917014167
0.10486428529092019
0.5700309689522648
0.6936529179749119
0.5729933899900728
0.6354179052380483
0.5340791054668473
-0.23495201020534415
-0.6551362193742278
0.26362419024017797
-0.9594592416164057
0.4308495894398219
0.31455461279208513
-0.46323487425771936
1.0305463591292008
-0.25054952295599464
0.1204064141810797
0.21589028743498412
-0.48389106352870626
-0.3325569285209908
0.9244709401442166
0.8765748095687184
0.8304679555554744
0.6976635877929931
0.34355545820765454
0.3798418314227643
0.6602163992235818
0.2761837287621076
-0.9788867075290008
0.3952770993518586
-0.7074751544080093
0.8366661168377366
0.4744396608616857
0.3791612043643341
-0.3942134409583807
0.3349292685920391
0.08932033887889584
-0.4156682924389291
-0.6207475208046414
-0.9366449327967153
0.9719285754071387
0.4764362145709001
0.1490230189295084
0.8948848488016189
-0.3634580888430607
0.22920955164499177
0.48484020190410404
0.6640020481371258
-0.14034033333695448
-0.8553367924009041
0.5928684483487623
-0.09706759903921225
-0.6934448703510754
0.6336528189566077
0.9318227479884384
-1.0068483051764598
0.3388833653158691
-0.31076018442833225
0.7180598499744413
0.9789377425938274
-0.6358583506401078
-0.037169055651466124
0.20645245654040176
0.19925364852532065
-0.08090068375730722
0.4193956581894836
0.35077756659828213
0.7181453108848128
0.5558766600878301
-0.562901394053411
-0.7899591325810714
0.0896590271508361
0.7598219046894636
0.4525079632540968
0.23914990212928366
-0.23745175948888766
0.986344207480947
-0.20048352916814638
0.604164044289476
0.6847867371656096
0.5117287438539819
0.5045568155737019
0.9634377115507707
0.830557820555858
0.5982280336260501
0.9781675724624666
-0.7912968075252667
-0.15079805747471983
-0.1028000042315051
-0.5031247071837831
0.25955816929532927
-0.5142446580997899
-0.5434891622519837
0.9946787108767543
0.08658759372584454
-0.027768410797055228
-0.74503234078134
0.9734306242325159
0.15187711780229143
-0.08937484538028154
0.2788593487256528
-0.9632503272164585
-0.637243339784342
0.21154388523280837
0.5565931797685821
-0.6336492241908389
-0.36073113543384827
-0.2436548179349094
0.5193007446176725
-0.5265724029566833
-0.8220452435901232
-0.08207270416227615
0.8813697295701365
-0.07467669295322038
1.007422895882125
-0.3010274446256095
0.01850114579549467
0.5994882996054905
0.11052290969830791
-0.4554317832484824
0.2967993562789388
-0.2562336185477611
-0.4218855567984763
-0.03159039592050337
-0.8636908998519754
0.6691196996306379
0.9487141436826957
0.20499316120554678
-0.4149271946787498
-0.1208132957622575
-0.35239908327261626
0.6819426660988536
-0.9306379995776728
-0.14944294987585893
0.21304021150780494
-0.17753604192564088
-0.6179068437665489
-0.47349574848787856
-0.6538039327061047
-0.9711911360523836
-0.7174432853134257
0.7472207519875236
0.1065856451321363
-0.6103902437949895
-0.3609822466033482
-0.7440648621769888
-0.3558408077263151
0.07961542156410842
0.8233125727449913
0.5092976506995688
0.9027297309835335
0.03394755380249686
-0.68734122314853
0.28327118706823684
-0.5587061457329432
0.6954580222698434
0.21533421884342135
-0.9862426895343924
0.2124780623146997
-0.14617994581549054
0.9272400879597693
0.20951655234798006
0.8438051104839455
0.5025397905620492
-0.4598378947226138
-0.01750529660709182
0.06523584304415175
0.6735319687970533
0.1912058438851413
-0.027393679133585976
0.25633047023141464
0.20320906261623312
-0.6219922564127386
0.13651703516093378
-0.15442194930124514
-0.8237858550617233
0.8568070952270262
-0.23395410320583762
0.7300715177002435
-0.9009429735734845
-0.12380411301092815
-0.9723383544479064
-0.6244274543514908
0.8061214020884103
-0.2815511648086164
-0.9476207575238599
-0.6148586307843084
0.766752819810885
-0.6571023640054563
-0.5919182776194634
0.5349518894087297
0.39723573424409686
-0.7302880323640089
-0.5275208245581224
-0.8155346906483377
0.8342980564646304
0.6883156776903795
-0.788263829210457
-0.6289840148492206
-0.5845621073510079
-0.35391537094676834
0.5597612183347938
0.7563097075309411
-0.6325629780389169
-0.5125480117879578
-0.010949719203429504
0.8318198789948184
1.0213362565911397
-0.43269006018873496
0.868428457414973
-0.305057397175663
0.5173177306710965
0.36731054076701586
-0.9980431579121906
0.43061961912886115
-0.5979891643684356
-0.569813149725678
-0.5705880702553014
0.276771975059271
0.12231051060382958
-0.535942400564249
-0.16287857169813358
-0.1655307879203285
0.3012499658553297
0.3205450571655549
0.3240312466932216
0.8039019886875155
0.8815975805674003
-0.7030574800991165
0.6423406349536299
-0.7051839546619536
0.9969475753150076
-0.08501616453405422
0.22057319668812023
0.6186539895660549
0.09096257580211292
0.1639997182344889
0.5121247984511526
0.8869792774428721
0.6678212391358853
0.059118610582018526
0.3161919758096059
0.8026362452196214
0.9866415957615244
-0.5135091471745052
-0.9796006014654359
0.23206562593353075
0.5721866549091361
-0.3330154898073203
-0.35005992720495116
-0.5463667307917419
0.4122432043694684
-0.7965341598733235
0.9319198281251689
0.9894837542814542
0.834499759922688
0.646272347745395
-0.6805847854485121
-0.15949295908763458
-0.44470821514153125
-0.4169854721645511
0.022198851334403424
0.4789142171241214
-0.7775332535086376
-0.5351034824202434
0.10657671268495637
-0.25387290966006876
-0.30044880197852325
0.5631800905538241
-0.550820908207845
-0.3939695524191251
-0.5812446752379152
0.009858615459421571
-0.7033750254176976
0.567851994586825
0.052843826445770015
0.8589332810741683
0.026133346658383516
-0.10240841665737288
-0.8608025770887544
-0.1613573634450072
-0.17504217543836045
-0.7238872225389548
-0.7520990526875704
0.02521307842088766
0.121970708974821
0.23789341050720092
0.6867135882574925
-0.4824463516540731
0.24908990938681239
0.3778246760952832
0.43226949355031047
0.25419504710821916
-0.937842839625685
0.9194040984394962
-0.7801590770374691
0.030033446241767958
-0.6899850294441308
-0.5898859077560128
-0.08104812230516156
-0.06446165599188225
0.6149851525517556
0.6318538442973058
0.23807862733462382
0.5140147261753358
0.19224529366467658
0.20656919790220907
-0.711775334805884
-0.8093073872699679
-0.18273752362380746
-0.883292646201004
0.8344224155109907
0.7648419910114608
-0.3123436116642184
0.48199575798859046
-0.7283465245845263
0.09633253596225777
0.4789721653954706
0.03466332285452821
-0.9607229857514406
-0.4908400011866789
0.11933274984553499
0.9144120004458782
0.4453733160154896
0.8895392821700603
-0.41937564042430253
-0.37005045855157426
0.6760348509671863
-0.026257500322016458
0.3428362923188524
-0.6537463594097344
0.15512393198346963
-0.09906171706204447
-0.9142936692538617
-0.99275829645494
-0.651357651128428
0.7488669325688981
0.6378846891925054
0.23275967594543112
-0.3847746563590404
-0.5247360903844929
0.24549693480868795
0.41358627965148176
-0.2328216829655092
0.4555222537194732
0.8178815493367078
-0.02283044892093944
-0.36637880258437017
0.6371633618588719
-0.03351871877010315
0.4081414531672176
-0.8932418374680124
-0.7757379334297028
-0.626429458669304
-0.7185161169162249
-0.0957554128950624
-0.23994765591269807
-0.6892964074792391
-0.6974523392507914
-0.4049248992883929
0.4935158266995958
-0.027527292134415404
0.1469546116672198
-0.6866297042735681
0.995835023917421
0.6993670246160317
0.754740369885655
0.023892361174984833
-0.8648293059591625
0.13422719524543814
-0.34307612908226126
-0.7949259401959397
0.723300625077063
0.8899933929240076
-0.10098188611314174
0.37979713818713345
0.4152361650971521
-0.5978524013172286
-0.8251760517140554
0.05111047005346214
0.7730094617858745
-0.7025455726769825
0.895177661820334
0.28953080892713
0.7974044299755025
0.8313068765933236
0.09015079318003183
0.47052253058896554
-0.3135194564129484
-0.27081172700604306
-0.7204711359808573
0.47520580792268774
0.09731854224678704
0.11346290047586227
-0.25477624636047924
0.04429498235359741
-0.23250621577914404
0.10491258429546076
-0.9993972290827201
0.9147239470736673
0.9953633806666895
-0.8408641168412394
-0.33464954239026745
-0.15159075525959198
0.16675473419887085
-0.7835088663625417
0.5179902115319933
-0.0974890394025893
0.41575674696821796
-0.5428403391640417
0.7965640999919745
-0.6957034405450868
0.8736800443253971
0.20085763578416915
0.8777351482213276
0.7072436285490347
-0.22006138400860853
-0.9680053386983176
0.6603745630812802
-0.17835645561060284
0.5252835192809686
0.48853879181632887
-0.9447301018420411
-0.9821962950081999
-0.3584266904437801
-0.6808527237895137
0.4798918206452073
-0.4879032281895848
0.3726021839528235
-0.6835234792074738
0.5815217773630561
0.852357711290813
0.6903148453970429
0.7761872209587098
-0.13251745548689658
-0.0311367545033989
0.09255293920109203
-0.6507889942034168
-0.17589690303488634
-0.6905022294351204
-0.21850274965917027
0.5692845679220777
0.1901115916166698
0.2587608372398247
0.4008498286471529
0.22731976539434284
0.46941329764404083
0.289611680774976
-0.4502992436496765
0.09675907799514584
-0.49312304985199956
0.8399354000113398
0.13890078183597512
0.32942712995021906
0.2762433015154882
-0.6677423336668327
-0.13732602624814672
0.751073946811
0.6304945923669101
0.6661543916023789
0.6930238304615165
0.7623829373984313
-0.6731345297853977
0.40839550525533186
0.44628471066097763
0.8037508048151237
0.8291518575437838
-0.26012772375964
0.7468820812321202
0.9742496296647476
0.18479276880155293
0.7720240147295576
-0.8274888945680168
0.1306773537831314
-0.8513296853453911
-0.6171246559417196
0.2538205276304241
0.04794242028099173
-0.11041641464842863
0.35332155231492307
0.20659415458232458
0.08087025469233453
-0.8227655160291961
-0.8412975785626989
-0.13878060770629086
0.5685603557063597
-0.7465960471994371
-0.30065470703625174
-0.519203015587721
0.7883234044527793
0.7088551588365496
0.10550183447069654
0.8290933433217718
0.737173154867759
-0.8075970934247912
0.9785966905195004
0.9866204943608282
0.17951691643314738
-0.46879583477711995
-0.6905690426725055
0.5230954506843011
-0.5922868036060849
-0.41697584883974237
-0.38157393372534654
0.8715420548368068
0.0791883849715647
0.19701037007243288
0.7262477795435036
-0.40502947562154046
-0.771716173756836
-0.667181444336836
-0.3289745752524775
0.03798520070806765
-0.11614353507445167
-0.16099478097368625
-0.5281780802415019
0.5397181476336915
0.9079280513606452
-0.03052307305246115
0.5171264227489554
-0.6155414458978954
-0.35738676617035736
-0.6605222316910887
-0.1867189386961031
0.3047013077995157
-0.25855692190443613
-0.7681628906301001
0.346850040904628
0.04187639339617988
0.5374369957386573
0.7429646517171089
0.9729218911224112
-0.21152344961705463
-0.5635093516236392
0.8098763012656242
0.7210256623508954
-0.5081721484262199
0.07475757695327843
-0.5759008244917013
0.5956053333507582
-0.7325247025019187
0.6301101778440779
-0.5869123157209845
-0.845663502406144
-0.6629561895071128
0.4856959761785219
-1.0067153638618227
-0.19518426808053443
0.7474275395638195
-0.13776358630946225
-0.5358665519829929
-0.5655654200060762
0.40694275692140813
-0.5519417194615877
-0.6015334235758534
-0.9807351627392003
-0.25315339378399426
0.640782426213717
-0.6173571976545144
0.381815664239942
-0.277904324740466
-0.6717811249663882
-0.6107900507127186
0.061507698184369713
-0.27138240925413276
0.12425414051529204
-0.6830088789898233
-0.34012578128292253
-0.48037581550769737
-0.6006942463297846
-0.09678988528317696
0.3214773395281575
-0.4567362996061873
-0.9880562813779841
-0.16091556966779305
0.6495373984814751
0.8410202775101064
-0.9734124816662046
0.3105992917134503
-0.6878749930845744
0.19189662464878007
-0.06658821840075846
0.10788471783944065
0.27511194588995047
0.020017135453473278
-0.32166031834657827
0.6211718765123161
0.3294432322190385
0.6908883212900905
-0.0889166213791985
-0.03462886335605163
0.8587903840142757
-0.4846256300374528
0.24407622850294566
-0.6537056906338103
0.5816509920435862
-0.1889872565279879
0.07309562334899461
-0.5575114802886442
-0.02405882754906382
0.7257320261608858
-0.9554740011377129
-0.7761031765900841
-0.06587312586196792
0.5219120184550825
0.6486072847474549
-0.7616555290900472
-0.9945185587647849
0.7187680808121589
0.8655581965669165
0.010428255879029362
-0.7726629477199036
0.7967624213575357
0.6793099374516065
-0.20982080590330687
0.6731382712964399
0.8191456486385822
-0.16384559965655474
0.04836845010493452
0.03309153752323566
0.4410024051333789
-0.674739241087142
-0.4134095921889627
-0.4792102413651897
-0.2848400697414622
-0.13771558587156393
0.48572411698740703
0.8822050779211811
-0.9784706361390358
-1.0508351408332774
0.9093421915851999
-0.9570306582523239
0.7498442178679524
0.5465462863737766
0.33609616187024965
0.3514241021008559
-0.9336233427285201
0.6397596276214219
0.3509074577986648
-0.44635289660617783
-0.1368467319776614
0.7440736966023593
0.7960054197285257
-0.6324758046028476
0.7739047794301747
0.7325171943033159
-0.930507517915288
0.5523978721214589
-0.9119181039879067
0.7779369090340309
-1.062045066743271
0.7520425059551136
-0.6599722758311267
0.005414757327126372
0.8297182138560445
-0.15148654299644182
0.40881227252400476
0.2856346427232325
0.1553374745504508
-0.09670748966381275
0.5396701743513491
-0.28240133580720006
0.6637661293657282
-1.0015036147682341
-0.3106403102202584
0.9792139146806901
-0.5146288915018371
-0.6996097922567432
-0.17970044988934286
-0.29445199081920853
-1.0142690216927448
-0.865403060875975
-0.19924083680479945
-0.1198992967369164
-0.5048950828985533
0.8205321223570029
-0.6883861561620398
0.6787531209634967
-0.988267291348643
0.7954059062362906
-0.055693360706093535
-0.2957035515448964
-0.9566962635399697
-1.0163869219879615
-0.6127945357659853
0.10928512908536472
0.5891416508033387
0.09398382134360553
0.11191648710220659
-0.5336192913513516
-0.0998724958910343
0.5527909580271942
0.15403348575360187
-0.7462695016076384
-0.16152907667032723
0.883946679687029
-0.582698913469996
0.9682029848524097
0.4228316218590684
-0.9800188089801072
-0.5985075008940689
0.6546685482439856
0.6417151421896614
-0.8926604255805302
-0.6153808041556463
0.3931130808859325
0.00912342352356867
-0.9248814361376471
-0.5720955217096853
-0.7747496081750257
0.281852058861975
-0.12097392244916241
-0.19333046403611523
-0.08322308702252273
0.6373585589956889
-0.22989127394172906
-0.14629392789045273
-0.49191116155433473
0.4475448826913803
-0.9323208386110406
0.5207191666904
0.6726356135167347
-0.4549829445218718
0.4604697706419616
-0.4655155385030656
-0.46406774255268374
0.6586804535127477
0.9024839304356055
-0.5543279766689687
0.8506320904685719
-0.2277430582226923
-0.5150786728225152
0.9128574881680628
0.14546348990167876
0.2601476379295823
0.8855199183343085
-0.8008729507850018
0.4473262470705638
-0.9289699759110872
-0.9274070290370258
0.8562186206694059
0.8989872419917928
0.5420808159029363
0.46169508744777954
0.2917373894121544
0.5232985485834887
0.9346652842223425
-0.41867510021362814
0.6579846811433904
-0.20889991717329334
0.7556432043942987
-0.850734476168268
-0.883819167093735
-0.5361085475392493
0.8940683353686216
0.45637756295717263
0.11366084889383192
-0.5532761726262484
-1.0454153203566083
0.07902362021769044
-0.6130199894455892
-0.38238801812139134
-0.3776086063327671
0.38257858396519767
-0.07665649494852898
-0.41909744631246304
-0.9060420066562828
-0.3258485153324608
-0.6930163254451862
0.6375800018700599
-0.8911741610402779
0.41351337732373933
-0.8557919714505375
0.5179777287675972
-0.7208257323206099
0.9883260390188505
-0.8502038678150349
-0.009483375185572329
-0.23966989274457862
0.8470560198247048
-0.19262172555596346
-0.857487959437983
-0.13029314091679023
-0.6872649562777928
-0.5849703583150475
0.7347413433022493
-0.8384424307934925
0.7325614517777623
-0.6156064940138078
-1.0056729071317547
-0.5011000923316331
0.562007600248814
-0.7836788026433836
-0.5104009083782935
-0.26343466991838677
-0.3565458048882667
0.9633258519601136
0.4118542919192918
0.42432274478796317
-0.26246321636275993
-0.8909637184567097
0.30359203026434295
-0.49407270825332206
-0.8093626190807534
-0.7127726260083647
0.7502964031714783
0.6948618480989381
0.5598228485605967
-0.05883947906538434
0.4947301056768927
-0.5891895628035333
0.75600613782856
-0.7419883047155954
0.7141475379562764
0.30766652699710717
-0.27002647277160075
-0.9827071214085815
0.35824567222513154
-0.7953136896468739
-0.3497650012392988
-0.849555143405058
-0.42152919212291523
-0.6118639019194333
0.7248478379029842
0.9133217803157472
0.3280930677894817
-0.5125908791850726
0.5203742903293811
0.4067701742315686
0.39706691994334986
-0.3575338736060329
-0.94098059324089
-0.09411995999465782
-0.37394837920832136
0.6441199011134635
-0.6941197255883045
0.8539213809352899
-0.38961846680873324
0.5592804025409904
0.17430226267777746
-0.3838555701818188
-0.30613903907274587
-0.04513348637764904
0.6680438302225976
0.8207716301053622
-0.31270964976878307
0.03822950543399693
0.982689290408195
-0.12080665723904684
-0.8132643491046248
0.2598989575819488
-0.8132002682828158
-0.934048034545187
-0.5714579286267288
0.766725160525571
0.537365656058678
0.4051427467074193
-0.17385212413754983
-0.23102228973574349
-0.8167845224457553
-0.46629804066176883
0.8807771822981536
-0.557553942395558
0.7082814163595994
-0.727076711600277
0.2259675751132982
-0.3314718813679522
0.2958977588112935
-0.3074949347851005
-0.24295937991200245
0.318692240505452
0.5646186981971848
0.47341945088483933
-0.9021811913222447
-0.8894421794409572
-0.5835239418830657
0.6672180994961762
0.6914393881675485
-0.1326375549729525
-0.15120046818170776
-0.35857349105744946
-0.5267070995390166
0.8692713331682415
0.8649299290424721
0.6556180201643032
-0.2746580291124909
-0.28054105241093863
-0.1141546464510702
-0.5427524342053177
-0.3128614357121029
0.3951346987337536
0.396613610418705
0.7258454332088582
0.7897435662749426
0.3709910518934753
-0.5767445989493905
-0.8478960616026073
-0.11754605885153221
-0.46180384534551605
-0.5358331634730187
-0.359915805808725
0.3320303076484052
-0.28610179156153137
-0.14210656712169667
0.4030675723994512
-0.8340178858691639
0.9481945300197999
-0.19580000830194552
0.27149162481990397
-0.11767110322284224
-0.12271289834187007
0.06498860782740692
-0.0300088665341623
0.9636402743730387
-0.7042092809662515
0.31403108701277277
0.8942700574028479
-0.2730526272283049
0.5064423810172125
0.27769220770046865
0.5645459598510318
-0.5782118004857433
-0.056219905587314115
0.474204134194402
-0.622977422056193
0.9749545422438843
0.7993589304626156
0.051944567100494866
-0.818365056574207
-0.3968109997085388
0.5226436941099272
0.03997587855866999
-0.9273822648993431
-0.7366097265086353
-0.9525380842207848
0.8946582936062125
0.39636754297504706
0.8614425771700992
-0.7643215266771568
-0.06135853193771121
-0.956039263443444
-5.819179050307147E-5
0.09591258070453507
0.761015882574417
-0.5218289897363522
0.8596394953182489
0.5983311703674516
-0.3883850580470225
-0.7246596323495338
0.42340506222136787
0.49483578820617297
0.5472847268710427
0.4890944548671562
-0.07882672619840692
0.6159222457489156
0.08799693476722632
-0.5303788367328764
0.545820024102702
-0.3783997348457109
-0.0036666332504804956
-0.5657327003686208
0.026492363279497274
-0.40583200524936575
-0.9547984530657422
0.05720894908312707
0.7778358051538182
0.8234884464602711
0.46942438304250267
0.051877515393213273
-0.3139575531613178
0.6699702838483964
-0.4021804163823516
0.7148706728137959
0.31477213535192217
0.9404902520875955
-0.3559071924831527
-0.7343237271656984
-0.6018209933221694
0.3160493297985691
-0.6710063866664309
-0.860280555745296
-0.7220092582563467
-0.1250873102372992
-0.07219403355893517
-0.28596053947684424
-0.5070015252616012
-0.18449508087306457
-0.4701706503425748
-0.28583997664617833
0.7992754003590667
0.1460939174296277
0.01292752538391853
-0.5105889048807324
-0.44972006577753815
0.7441451295605157
0.6375774552700733
-0.2722881335546369
0.2054669067125498
0.12608730089682973
0.4120175443755425
0.9652731020255971
-0.4157394078315628
0.6860081480603482
0.2979260362483256
-0.7278363909676275
-0.732014721029643
-0.26516407269077513
-0.6702980448244009
-0.11820459720762372
-0.23753870706736901
-0.8514217958375934
0.01728950980802888
-0.9078469786527077
-0.20485226399581055
0.2809840026563201
0.03469281265853758
-1.0517595637899133
-1.0175913308420972
-0.9261982804907328
-0.5110489716841073
-0.8635341730936272
0.9073234434101649
-0.25703052542415317
-0.7286144513447128
-0.62975876366644
-0.871509387130003
0.4231956507007979
0.04871668604292556
-0.16343880018096169
-0.15172234579651378
-0.48160383670193085
0.11594629315503147
-0.07250395092049056
0.7501023053444611
0.6844320521692631
-0.11433673708515091
-0.39666459135242804
-0.03213179294400665
0.3202222361588337
-0.6914300713415165
0.8902204863076792
-0.622717145594056
0.804572479995161
0.7906505938837557
-0.399007701513605
0.11435961962814806
0.48758841245923085
-0.4393580357718435
-0.04076413692025517
0.7446288245139386
0.42523352222390526
0.671138497619964
-0.4598817319381828
-0.32050682737143266
0.04471785655856575
0.34321762875453143
-0.36685998597105485
-0.6355577174759972
-0.5355075081756309
0.2747013670826477
-0.14612070834471713
-0.03344566553320538
-0.9654860703804469
-0.5119589916282399
-0.23273153562077226
0.6289458872352027
0.6489041509413092
0.9787242136047816
-0.9170732623399942
0.8874958765484185
-0.14060281795228585
0.9594132869605879
-0.8629001483920504
-0.5469546763408936
0.22722864418554944
0.17961204144015053
-0.5995950392951832
-0.6970833207734428
-0.3093026579906277
0.8272225297110474
0.4607647944934785
0.3145656811283133
-0.30294544188862416
-0.6891875802130709
-0.2768753606026326
0.7831271647697586
-0.18589706487154944
0.05260863637595348
-0.08184177456708341
0.983553483614785
-0.13111475105306614
-0.4671109690645434
-0.36579265373829806
-0.6952195774809077
-0.18704061707908215
-0.13148959178972786
0.8291526313016035
0.05749108645610373
0.869034890531514
0.38466331126766573
-0.26188872296163757
0.8934149278236195
-0.11338483925045165
0.7293627884251873
-0.7243105861297736
-0.8702609781954684
0.05824410878034314
-0.6609015072881133
0.7307013047973885
0.5784435164919055
0.013812370236926164
-0.48617783477558185
0.31884673537244557
0.8224179685515376
0.5110641174134127
0.6382600033159613
-0.01108522484364416
0.10176764859651599
0.6701058727679334
-0.6056743634425474
-0.22933854294276923
0.788872631931758
-0.5521345675229221
0.6356783327248281
0.9075859745881862
0.6122808226738627
0.6872663677162558
-0.18758530740889756
-0.9645908807931813
-0.3236213933401426
-0.08449620397182578
0.7516278015304814
0.747134757772153
0.7256319001036748
-0.0792198505736339
0.032664186430378495
-0.9718455544927567
0.07289136711302358
0.06068625155000906
0.19786274003293158
-0.7500679260799421
-0.8555403850745216
-0.7582578677409952
0.6040116857613334
-0.3216151080887153
-0.30967821600827383
0.55844001865114
0.8467144028972402
0.7831545136113696
-0.6338570910692722
0.691459710863441
-0.6206938928356007
0.026539558968016852
0.6143395804056859
-0.6614452055566806
-0.8000809978348327
-0.7340591604132791
0.5547359128192466
-0.8120632904698248
-0.7052564308695581
0.4212462410785396
0.9410175390288766
-0.7571888995413558
0.902490007404019
-0.36133727265832105
-0.8526002519608391
-0.33295044852890476
-0.3954959813812391
0.8250790359602027
-0.37937054176811214
0.7458075398351187
-0.25305329306471
0.13212224683651286
0.2656441956474249
0.04122832276648891
0.7658998986680245
-0.2633512635640558
-0.17108662756555781
0.3721989428807382
-0.38678831281262704
0.08757501350272003
0.4943414984036329
0.8511055240256918
-0.33526388461849876
0.7363621114255544
0.6861123540920404
-0.05998042770515733
0.2860509292865273
0.6334961420641467
0.14743208268806904
-0.971479971393144
0.4014735590146888
0.16692701681909472
-0.35596418974695665
0.28487454813559987
0.6194411776357442
-0.16625276592918148
-0.5438215853164048
-0.38954297072816346
0.313750025222723
-0.05308597185138275
0.36197048420222044
-0.4681958779349618
0.920865087383758
0.8008434515364327
-0.05214504733600789
-0.2893629526277086
-0.6742673631376087
0.032995905966093385
-0.6172156996205134
0.6502434141800968
-0.8840018121131932
-0.6996864006751782
0.42539869877884806
-0.06969774795401848
-0.33924089254678813
-0.42040522953774195
-0.5261964389437738
-0.6453077838484662
-0.4538496589643362
0.24201040603538596
-0.3106674450243047
0.1868847675461318
0.6047500927722589
0.13154207087151581
-0.13431381021263578
-0.016921990563509848
-0.12200926625448072
0.7525323157411745
0.5235235613207803
0.13416746699290427
0.48239389563411783
-0.8109285062374223
0.25985186361553797
-0.5487317399772409
-0.002177817121832467
0.1510518248816865
0.10922070721133471
0.43279958489989034
-0.2509992676412877
0.2596024120218236
-2.949853548448632E-4
0.11243119118488092
-0.41340726385385734
-0.4809073043211793
0.36652765852405056
-0.1621794577626848
0.07642162362933293
0.7607997718431031
0.10162206815239808
0.36761479485942183
0.8905116740178016
0.0831608882636734
0.14887815478516053
-0.7513164939408055
0.32775771698392586
0.8854823389331565
0.4690891031437321
0.8607833437596035
0.6246030020822058
0.40995731662618046
0.34517430368929936
-0.8595547361947244
-0.2925708790658162
0.002867429009209236
-0.764525254809746
0.3145253918843846
0.5071196840669085
0.2826325822163316
0.2617511257756564
0.020384751245119216
-0.4530601611738908
0.5082974210861012
-0.4751892796565088
-0.25682732115952156
-0.7443339765299948
0.4205890081058424
-0.4637457303050299
-0.5474453737314604
0.9674798092228115
0.4043227596653812
-0.8879440604579851
-0.23273074803173666
0.5485485127147645
0.9129879118882742
-0.8620897769532574
0.5675470216207525
-0.709993923450426
0.23872834294460007
0.08273153556132688
-0.42722251373853964
-0.9700527688117367
0.4934377841096116
0.09731944253164969
0.2423931712380084
-0.745887860883389
0.252757315859523
0.3934354450755705
0.5155541218783238
-0.366953545329668
0.7565679853005003
-0.24904022149996588
-0.7671637732576962
0.7975580940835529
0.035477867996830385
-0.8401413584460814
-0.419457488297152
0.9047817441083641
-0.3636937979507847
-0.18640383132725602
-0.7474234115765495
0.4507644615318944
0.5330315671806258
-0.07847259448347654
0.43210519222958577
-0.19095553901632756
0.6848624015926077
-0.71338458783734
-0.3436386070554747
-0.879748304130355
0.31860081173732346
0.6052680704825731
0.050321253034712334
0.3249106483952172
0.07499039201029045
0.7466321625194501
-0.7208052135804975
0.8220784606080197
0.20826563328522268
-0.5520287784801328
0.924973338162804
0.9596079535547667
-0.9513412294218695
0.23846744315089466
-0.5465208976887014
-0.9471328948055427
0.7373806869402797
-0.4173253784023765
0.297570308320658
0.993118890828457
0.5813452915695432
-0.08060637031393103
-0.2066089413109799
-0.3700698526809938
-0.621188329946241
0.6061304179537484
-0.3205225896379088
0.1300498788175561
-0.4835981437904771
-0.8188422889017469
-0.6983988684316969
0.6643521070442032
0.9773258868266297
-0.8073896360873636
0.872530808920527
-0.06742857973412704
-0.5617943255673311
-0.09399280938605285
-0.5455822210988654
-0.23410155619351944
-0.9415143774560462
0.8086117867463033
0.04057501326774893
0.23626255380619296
0.4744701481693303
-0.8314227198877715
0.9132696713506798
0.792716601761301
0.5188263555936978
0.5267976512337684
0.5882702104224664
0.9478264554382699
0.7048877174281436
-0.7488484429286549
-0.6170926241371604
0.21696835479285967
0.31799653526853755
0.3637146067968271
0.1974687893592228
0.7194753732951673
-0.58802969331978
1.0183911363019165
0.06725483263634242
-0.41695664638268726
-0.06065971746158448
0.5609191714841616
-0.421505138770501
-0.6008701088808446
0.8658615040495883
-0.4846657251849257
-0.8210079501125216
-0.7649498710272573
-0.9614928956069391
0.7236624503137873
0.7463998541240481
0.7895179092222357
0.8529300895898906
-0.9281697526867263
-0.49826840087915925
-0.6397487412759949
0.005928016724217678
0.0929954854713476
-0.1926573271892545
-0.6376914098036118
0.5447759131602458
-0.4666183618421108
-0.02909042375885356
0.9391457788106975
-0.4146754765155371
0.3943914238916571
-0.32895957790097735
0.7177712605867087
-0.6093312466564826
-0.16360912166454986
0.9047667350983561
0.5884877249841255
-0.5213989207018624
0.5278814443570481
-0.8634615767007461
0.49420018667384324
0.0011045239600959782
0.1135236678807483
-0.12234490800126277
0.24735219088350102
-0.5358296948032168
-0.43958695254798125
0.2072258442115702
0.23046819826850218
-0.32902978340065325
0.06984652470302793
0.029005467609746042
-0.4821959961905427
-0.8289796053717086
-0.17588997988650942
0.8029394120300898
0.4948535993707778
0.8508651554510644
0.943997472103473
-0.8049312759873607
-0.8828971358790589
-0.8323567653046134
0.8458417461070773
0.21752915041489365
0.042827239798773925
-0.5660314241007353
0.8069869907120732
-0.5568814379700149
0.04622929073824015
0.9941968573656844
0.717617836535306
0.7762024102929381
0.12560023282592803
0.7639355620975796
0.8960164695129907
0.8262592122042177
0.5560649728110313
0.2888754866068108
-0.00526083728869219
0.05484864797682844
-0.687351742214099
0.4182551038713202
0.5104257048731032
0.12054233832481838
0.3722235696146371
0.5879075560233047
0.19716933768239103
0.7584771805107751
-0.74739168067575
0.5020231020400816
-0.8956807777854038
-0.40429946337722317
-0.8593939569826627
0.8361070337084072
-0.5998306558082819
-0.3226838594774868
0.053090384243163195
-0.15769359540313377
-0.3124803378792471
-0.9026298755232063
-0.4548836887156955
-0.99759171290504
-0.9136649047039044
-0.014907128511532098
-0.4611805893713981
0.05181589396007432
-0.8451879217274048
0.22102807035546812
0.08339641442202038
0.1497218854508022
-0.8177745336783612
-0.8959006211025543
-0.723174692556955
-0.34177345296391126
-0.24247473233741576
-0.1372161980741273
0.4356017066059783
0.9688066320051799
-0.8085240345808997
-0.34655484344849025
0.6019893049308407
-1.0301821618376021
0.3175761237688852
-0.021867682366842396
-0.8709352880467929
-0.3717967544471426
-0.972914653387493
-0.44069849723316756
-0.30108429569401585
-0.12454905403114225
0.23680031979243363
0.28835988332920875
-0.8320288020548874
0.9763586088160627
0.3050463852930396
0.24506817824414143
0.057157577430601826
0.18789272392546463
-0.2013141502251187
0.877988869739856
0.5707912490329704
-0.47339237614549345
0.5631380952956879
0.1937656391988574
-0.5877892446258846
0.907034506579885
0.47943751070688095
-0.48349520027478277
0.6188358396300704
0.16835400151796626
0.8765767748847088
0.35319454385034643
-0.2059691871882774
-0.8733224681085968
-0.5483404817804712
-0.8793159604594989
-0.877394836453304
-0.15309731617374167
-0.9064009525020831
-0.728892084663459
-0.6560905134491057
-0.8350876719919348
0.2858068560277806
-0.9230932296282364
-0.02608106862369994
-0.06059544163686736
0.7576058713595267
-0.19787414484149302
-0.4685211520324247
-0.3285985495113433
0.9531049968768459
-0.0702327868104633
0.10239736081298317
0.6465703675627448
0.17117261491084168
0.6183649980153137
0.5755628259298805
-0.8274895002135669
0.3607100425203067
-0.020760138348744798
-0.6235968976315764
-0.8203938558470993
0.7014130721959017
-0.8945145647507731
0.7414875931956841
0.3078070336962644
-6.314503415587591E-4
0.20617241956972987
-0.1336223450449559
-0.9885281561789488
0.7647210830762188
-0.36720262319787805
-0.42578688259252867
0.30602582809566753
0.06244370000866769
0.6247985252945398
0.47262546320629983
-0.7449660425598646
-0.3578469336455947
0.30836855374781563
0.5952258806635665
-0.7576474806460989
-0.795271332135875
0.41490620484359947
-0.08830894143318076
-0.646914159377149
-0.5200830178653209
-0.40150126549227844
0.43384843447044447
-0.9329253784653421
0.9035029198700991
0.7819611069677588
0.5507256343635656
-0.16332976915187158
-0.8761232052441752
-0.7601646466947146
-0.9022888866787201
0.5968392460159611
-0.8582808618401493
-0.28806006574325893
-0.2321685472372889
0.07966096268400362
0.653065226523474
-0.46161365253983344
0.2090761831311026
0.0029620748529461524
-0.8654777509188334
-0.40163848198935037
0.17695673708523513
0.618665834285271
-0.2855872902426079
-0.8639672494629793
0.7054805037578737
-0.048580275007488474
0.3617788218969185
-0.67609048862638
-0.4652251714681388
-0.007788917711604207
-0.5833115561029971
-0.7979754966601402
0.16190057886681353
0.40492672583149925
0.6433725054677235
0.48379335662922235
0.5516269303270542
0.5332775390476144
-0.0481836433437564
0.7896560684634956
-0.32506243937569856
0.7617118832612344
0.8592463259824461
0.86645749907542
0.6229061646884282
0.552142831389266
-0.4362967879576533
0.780335880880352
0.021087125576363955
0.018273083992488493
0.02437209795171756
0.02896918327760399
0.780653260603655
-0.2207264185957973
-0.6948888644345741
0.8415013256398644
-0.6870978609569146
-0.7070557734118824
0.5573672887619381
-0.1566007480959799
0.7637584304229124
0.3893680136958215
-0.5100720825281213
-0.2925309469660982
-0.1686210515223537
-0.08477796974891907
0.841315333038997
-0.7756458145808405
0.2748456136393567
0.35410775022190777
0.9755263755784487
1.0263352848091247
0.7871259952467081
-0.37535798119400465
-0.039287674565844255
-0.6096671533321713
-0.7048091482143883
-0.42514400911305666
0.8091629167435207
-0.7026989988506193
0.9165932958804712
0.01683350051379475
-0.29929965038043704
-0.9936540547219087
-0.9884459630324725
0.9900222336764317
0.9496794548394747
-0.22919900864836795
0.29688564917972715
0.7083678238448436
-0.9839530521609041
-0.6259423819921075
0.08185072025646813
-0.24435269066063547
0.5543044880430706
-0.883871121760538
0.7504669199306112
-0.8048464401184807
-0.5255628002387494
0.16210410429359312
-0.44110074787882403
0.11284783315293406
-0.6232590824842656
0.7721785654484362
0.10601172706806093
0.7316597038469979
0.01374680264947186
-0.04677281227116412
0.9275707600509302
0.2711931135591317
0.15561638337860986
-0.33922476251378847
0.5099742757532013
-0.8934664992833137
0.3928201253504542
-0.35627528818395815
0.8315119489265812
0.29131521684770245
-0.32305887766203706
-0.5925892864757172
0.8151309809978132
-0.8865439653095499
0.1694734894897035
0.11283194796288884
-0.7744334658537363
0.4789536279070431
0.4552180269379317
-0.7107791445963311
0.5840026174031486
-0.03998718720996008
0.1677595816874379
-0.9426864539522155
0.5766459266314955
-0.43488614362424344
-0.6856283537993965
0.4287097684725459
0.42603300347947387
0.7191697514064785
0.5621925204970697
-0.9549976263375223
-0.5150282898605829
-0.23875407287791045
-0.790609662819576
0.9472408706396085
-0.7354101210403037
-0.5792541596468146
0.39190373733654854
-0.6324891135577213
0.82976696962552
0.9052213705027472
0.39664383000981596
-0.2610110831647683
0.5078567964793204
0.9706222007169348
0.7896805244260501
0.19471131869156885
0.8428072182634271
-0.7673202743055202
0.33316858673867294
1.0027971951667032
0.631499243309105
0.6213569364666337
-0.7342257554087832
0.47041582546355704
0.2545204186549086
0.9059044415905472
0.19420140679582715
-0.7873265497368254
0.7738256672443765
-0.49849932193037794
0.08955858591109989
0.3085327043915418
-0.48324569872725753
0.25423865829458125
0.06705158735569139
0.0012429493482962854
0.17610369666233616
-0.6749906424389058
-0.5997119241533014
0.29773495379771175
-0.048631795996067165
-0.5973364064495977
0.7954724714209522
-0.5843591230144723
-0.8231878415957621
0.7741876601946217
-0.3293323153968455
-0.7087558553935089
0.07393743840366389
-0.28778452962589973
0.880470110388116
0.36361894572464154
-0.42148735687289496
0.5027438280871148
-0.5400173437266548
0.9133263838557786
-0.6069731659943218
-0.5500001670736863
-0.5894025076664295
-0.31426519843895795
0.41171786780510633
-0.9617756869039458
0.002390775439334636
0.482143488498872
0.3045372992693647
0.46077517666464757
0.050746844304687115
0.7436676779164568
0.8814733223999698
-0.4371216409290482
0.6892916600837606
0.33731651400438206
-0.3900234975774967
-0.021051272131749635
-0.1577899167105315
0.14771935032835917
-0.6671261705128352
0.3293992490178836
-0.6454824827083163
0.636588401387595
0.9066727693306652
0.5576465694919982
-0.08898551176302893
-0.4151371160144941
0.1666999812628207
-0.2210214023729109
-0.07959551821418254
-0.42303934575344515
0.36011150992936014
0.1684295850165951
-0.39863494448199144
0.5944349078336195
-0.4842967364157571
0.7857444280627023
0.8782398320713719
-0.2620471679634492
0.3328276947803717
-0.49964607627734536
-0.8893334840362657
0.16887730208349083
0.3785414900354394
-0.3684815665954776
-0.7969335960614201
0.6838928650409034
0.5002797756156838
-0.40820991846437193
-0.44038005320789103
-0.0662390237208079
0.5593547587129428
0.17751682720553966
-0.8766469775092076
0.12413927293743665
-0.8816792611667603
-0.6321337855977973
-0.4806775852354608
0.19623606141892647
-0.15326691550253946
0.33175966945481905
-0.8866471797588151
0.4391828398185078
0.3752765566797531
-0.9195937890091294
0.38060046601499414
0.1336324106336183
0.07521597088569794
-0.45244073152321534
-0.7057252930812442
0.5571075149017922
0.5500716180052665
-0.8468354934712421
-0.2698380901319336
0.8010720262213649
-0.020063966101836164
0.4012898795369011
0.4176515305120704
-0.46883546691497974
-0.346192061406722
-0.27287166474711455
-0.7242976899454721
0.6647212429808147
-0.8889048507073081
-0.1465179173373441
-0.3422242193075229
0.7993823942798257
-0.4653813457210707
-0.5180011158037838
0.5013164585114529
0.2677691982945476
0.3283674871115796
0.9378942828522019
-0.11390411927938995
0.3848839726244426
0.8607047304169004
0.9903093537914949
0.5576172932299244
-0.2183233389728107
-0.4378616318027816
-0.43975169839877326
0.9701490266110006
-0.8272078094453471
-0.37687897633760703
0.9819079845163006
-0.9313141518398322
-0.5418495243839168
-0.8333725011324042
0.43562518566722774
0.5080751874492258
-0.917491013681671
0.37288340577691725
0.18824454699149795
-0.41205669891921826
0.0167225811573235
-0.44869387896382307
0.3567886196327752
0.8124458515636204
0.8720139853827957
-0.11955423526398556
-0.9461105312976346
0.8404688167782648
-0.5597882135281509
-0.6035211601341091
0.9785192962370624
-0.84198486798021
-0.020678292769020334
-0.5846556334658084
-0.2168637898968877
0.8962235420221654
0.6078183726626334
0.6957566625623302
-0.1215616667065531
0.8766223069693404
-0.7176714778461748
0.33973883490676315
-0.27050102933962283
0.18592697451053652
-0.9927961811134454
-0.32072777379169093
-0.8478676569854828
-0.6341094928180127
0.16081018544106618
0.21211208976985563
-0.36408162091398655
-0.35057981507199676
0.1221880277358538
-0.9732291339847043
-0.6996069647623144
-0.41762226045783546
-0.256933101835793
-0.9038743195862977
0.7334879784716515
0.8411819795931936
0.6340450101278785
-0.6789420888729776
0.6663833792275564
0.08953693937590934
0.7200731992964235
0.2699872752328689
-0.793486808000136
-0.6866886333176787
0.06921022970844004
0.1871148948218766
-0.8194569881670231
-0.7692015965810646
0.609945222347748
0.03164378832683834
-0.9682836004917064
-0.9037119724637799
0.026210757864452594
0.062197552225169206
-0.32895438297040647
-0.5019132592078341
-0.14446226206480128
-0.20488803817509216
0.6993995870641472
0.597823783508588
0.6146324377289825
0.042227055581499195
0.5022245007810456
0.670692541211915
0.6426314573410947
0.17343987312296152
-0.1754817374679228
0.7469687514846559
0.26087154288404746
-0.2257500634648436
-0.22877869276478097
0.7731109917159534
0.8089575252424609
-0.732469787322212
0.16068692807246773
0.6617149465034335
-0.6400711800766932
-0.3309520508783057
-0.11534204051817643
0.4450458930012351
-0.31530787861377085
-0.3163501113162117
-0.015463816076393577
0.7630575428353237
-0.633282446176349
0.8928935216621677
-0.28990062349399404
0.8542509777592215
-0.49608960540631797
0.0019489108334917178
-0.5122173213170246
-0.4557482143072743
0.19659013234036474
-0.2703474660901138
0.07552994353072762
-0.45529155624971457
-0.2149340426361192
-0.46388114913846684
0.9674915564317654
0.8600838530759003
0.8436271646719392
-0.8471773934002762
0.8586886710150718
-0.6048547839222549
-0.6685464301412466
-0.8078631716339935
0.4506473320965301
0.9158961937402452
-0.7969913718168571
-0.7842371938344506
0.44019748475934395
0.3959290370272659
-0.7620870371689386
-0.4855799428983063
0.012369940545853804
-0.5689805967790482
-0.9383171086813549
0.3972052635083294
-0.9563991832925702
0.23155199344828553
-0.8272823218803294
-0.36940714390677554
-0.40375284119362354
0.04598772471461116
0.7224702133348379
-0.32429954448817894
1.071480524338086
-0.021313172168114094
-0.14177605825454104
0.6409910772505731
-0.7802584499476406
-0.016176911151525752
0.2052768691447149
0.45575171525826713
0.8498352761103602
-0.2048399532568992
-0.9282071802309275
-0.023851894686364172
-0.8687474201816117
-0.028468092991674743
0.17006397028531212
-0.6344143885006466
0.17176900234383016
0.20938653656031697
0.0650412146821652
-0.9496167217738987
0.26505382897881075
-0.5027716670693148
-0.2075016491170107
0.6126774132206977
-0.45687482113467753
-0.677340856976308
0.7714736225085791
-0.2118205686981819
0.7716583695390987
-0.8578549776190875
-0.28170584307846347
-0.11950099600220876
0.25485964061813954
-0.20946689827891496
0.2129042668211264
0.6856428958166265
-0.28242780295260844
-0.9853623304096177
-0.56710436244904
-0.05273312430810284
-0.3890170594393343
-0.024177321908918303
-0.1616761405379279
0.9031946167808417
-0.7673800106633415
0.8128484122327599
-0.5227135837971932
-0.38951510847069226
0.6076075772688195
0.6056603695648417
-0.5371307388155697
-0.27020825445359775
-0.4249080823533212
0.9195243954541236
0.928536992481858
0.10028028844382976
-0.39475110764378507
0.883858265404145
-0.7125866105409534
0.0782941661898052
-0.5480709203940902
0.6316317045732349
-0.7556540114534733
0.1138128104280986
0.4750467458588825
0.46576404546414896
-0.07115555489847925
-0.7925795540047467
0.10904508635702559
-0.08526991140936269
0.5932307555603604
-0.3365930541675202
0.26935848077561564
0.3565481389584363
0.0052349679405187975
-0.34413743859903845
-0.9658999248011246
-0.6718857265919569
0.38762718939728075
-0.40062731547665603
-0.5484476136721805
0.7151350334929492
0.05057672871766958
0.019527934730238953
0.8117511897237184
0.8482401676408221
0.23445526078419981
0.5286750403400444
0.679254861755834
-0.2548315436708775
-0.8318099529955463
0.7954332614104375
-0.5807184915160084
-0.48112514852006827
0.1719167840847029
0.6371954863448879
-0.1684554190157046
0.636474155632593
0.06939565832339153
-0.6439413141099518
0.7339590253953401
0.2394707470545519
-0.26696682810004857
-1.0002179003930938
0.709158034725256
-0.66089724126302
-0.8768089386379672
-0.044441823318623244
0.03902315894957516
0.4222148919662682
-0.07618187824744746
0.21393613567589523
0.6077879069486805
-1.0110497866696697
-1.0887295217437638
0.5213763295429261
-0.31604715356898283
0.4623664631830878
0.6588354215368182
-0.25309497137959125
0.16542970938132429
0.6596314941338235
0.4416555626007481
-0.5781914555438237
0.33552929516044383
-0.019422300518575186
-0.5875356131990613
0.22640906142074552
0.8868504947267986
0.7865626108054903
-0.03861851443289912
-0.09965530386643916
0.28053455287361
-0.15363840403940637
0.22344752165294648
0.6652957624598547
-0.9746954073663139
0.5140123729725923
0.0206855674248319
0.9613398500967661
0.6557825491878014
0.9046614284429912
-1.0951773836344025
-0.1418999241435084
-0.5195570589574028
0.030528083775444012
0.43207398899601607
-0.5246863137911443
0.5637826034525022
-0.7497376893869448
-0.7316156503761647
-0.003248301692865496
-0.7013591962132237
-0.475006147630717
0.012026392884143906
-0.33831047086717697
-0.5666621646832037
0.6334100448173065
0.8745131289615277
0.3966067895880446
-0.3750280137575849
-0.9584678632420428
-0.8325047208056281
-0.6829003564081374
0.7594288468451187
-0.6543443396709818
-0.12376953089670414
0.9755455344778838
0.20374880596686712
-0.8187045584229057
0.7257434620698326
0.41658335095132437
0.14574881008967172
0.6691888562562204
-0.13643465447898728
-0.2984470739941139
-0.12006300784441666
-0.5430185257145529
-0.9527282603825878
-0.8514091449419361
-0.22775656021526824
0.7963097466342524
-0.8969475115102538
0.02385536990838869
-0.6554370621124913
0.2893925887342925
-1.0100401132471553
-0.04597001162239784
0.10027048360935673
-0.07330243105807241
0.4632251351289154
0.0847302582216232
0.7132074556942917
-0.625758659706167
0.24830848203965694
-0.9183760576318805
0.6984720847692479
0.3382690962336322
-0.5358948598036352
0.5528934173144178
0.2803016909759295
-0.5541022849589189
0.3229158435867919
-0.5122146328676904
0.48941412273163526
0.35487293616268184
0.7494339880668133
0.9847238575404649
0.21142485688653934
-0.1423390233295087
-0.4176890230449116
0.8249716200458788
0.5267494512321408
0.47941021923219795
0.8479127711914607
-0.4042648945778872
-0.35053890755921285
-0.4567494296326364
0.6736928174763777
0.5044441994772387
-0.5470500166196101
0.47805007972078956
-0.15007090920401364
-0.8842131408760537
0.034713203171514356
0.7649870930670377
-0.6462733095661566
0.4318261114801569
0.9109974806900475
0.05125699299593111
0.03755711482613422
0.35958122891674543
-0.10217407722937355
0.12920683998621718
0.16053420656829487
-0.5746429485281552
-0.7821557334235296
-0.39495080465927385
-0.09700725841391238
0.12377072427414687
-0.3910394472321636
-0.44528886405365403
-0.10390211727860399
-0.6299183009855938
-0.5646315724830767
-0.26033405556881406
-0.11582057472873833
-0.49834280707260803
-0.21616469242605596
0.7077485722476463
-0.5024065199015618
-0.700828704238255
0.18772619786911715
0.7054874485862015
0.14796330146433986
-0.10466297155739171
-0.34522717430259187
-0.2855705101090791
0.5985809885367213
0.44640782950108693
-0.28079381382523755
0.1472508544878587
0.874844463389344
0.7479132626038754
0.011479073956462083
-0.38574842445837176
-0.3030051124729579
0.57001871536262
-0.7343275736864755
-0.14267764710884423
-0.05396110164446202
-0.11576429692079822
0.755420137441481
0.5880891033963686
-0.8048767441301637
-0.0610247798033927
0.5632403026560427
-0.5347933608367114
-0.18129743259578543
-0.9699736497185549
0.46311960046422185
0.5048084421561461
-0.8077466397049894
0.013765841558518233
-0.0703408833703815
0.9438189621896387
0.7719769007084293
-0.7280068487114646
-0.6221387997666983
0.4051376163732256
-0.49225452884367615
0.5285360476703527
-0.8350987877005578
-0.3946018018362454
0.048306475659644736
0.4478595715185419
-0.004718861732748436
-0.4738898185612544
-0.7820146488602554
0.14023218636680088
-0.2522544854220249
-0.2602933155813097
-1.0447098049665755
0.48517442596662674
-0.36556277429953604
0.8891534640338824
-0.24261100170621527
-0.21278540946837285
0.2950066868088802
0.4020125181116482
0.28575210413469293
-0.5135634159300068
-0.38993602179800596
-0.8921432169948258
0.896542488076391
0.5721736337580624
0.6863504062704623
-0.2563268941785722
0.2661060824355892
0.07730935483785584
0.08879129129399899
0.961034019396735
0.1496063069718807
-1.00173065842534
0.7052050201984031
-0.49557586791207847
0.3425444291931346
-0.7088394584652422
0.5255674702489364
-0.33446287000658126
-0.15605213737451137
-0.4208167292517634
-0.44298451073102085
0.40606608404665645
-0.8860065270255999
-0.06756629844309323
0.7607592243532786
-0.7277350388505361
0.6131318477991184
0.15815357092434876
0.788062227763209
-0.06698552523677553
-0.7886295602381199
0.44361920763881385
-0.7393630130820475
-0.44085175103187574
-0.874572156334892
-0.8467354265190692
0.1499770342885154
0.9290242719614554
0.21194498744472381
-0.23289054012920485
0.877355204638292
-0.3458385884903547
0.037273591252163875
0.6137092432304234
0.11323576336993685
-0.6192264166678259
-0.005726742386906575
-0.502840702917378
0.516774752807972
0.8723047933098825
-0.32585404114263455
-0.1388995742239006
0.7380873793511796
0.19561809289480664
-0.8004576348599579
0.18950541942094845
-0.08586863863769537
0.3435330476725768
0.13809422424529286
-0.9350184363908413
0.034417537394899965
-0.2717716187665544
0.4121274185992796
0.3721989059468551
-0.8666386876721037
0.28184114916631064
0.13115228588853683
0.9598644988954025
0.5643085091155415
-0.5142295337682843
-0.9277088357664586
0.5108316453199515
-0.0646627477773276
0.5952810187986826
-0.2403012781737333
0.14076589175002271
0.4875781444828782
-0.18561176845149552
-0.056335770626428264
-0.05901829580512682
-0.5871707239280116
0.7301328354701702
0.35572328775951617
-0.8745770869474002
0.9020374171822039
0.8004542024959199
0.3611432084219884
0.4700745535341108
0.843026242059399
0.6951151139984029
0.5755639218272834
0.28478431727466424
0.026681884046496407
-0.6724567598473554
0.34898517272464197
-0.12378938914540458
-0.7994306579105189
0.48917796113691475
1.083770781974655
1.0039392563527036
-0.2825374538502063
0.5643025567474497
0.6009045667077072
-0.7421674553124363
-0.35077998596977317
0.04268690973803104
-0.7753604069117255
-0.8923764480524111
-0.26506456686533253
-0.8027549393142854
-0.7215601810396687
-0.24634033531411717
0.40914698287027834
-0.03148346044539305
0.43628004192643693
-0.35837062035460115
0.08173136910271879
-0.7312025608959303
-0.6417534009143262
0.6043974726015804
0.8121246081176792
-0.8159882520511622
0.07666671849879819
-0.8613178524470544
0.1458101322065513
1.0042856270822171
0.5594133854133796
0.8927196315255078
0.6947964705911335
0.5027260888193169
0.9143051248023385
0.5540022604604428
-0.1719717349345857
-0.7887019966189529
-0.8292692557997532
0.4957464122640344
-0.15627523359911627
0.4396911662191445
-0.17199800920770922
-0.027897686384842132
-0.8157724402042299
-0.152768778632141
-0.3742911656101761
0.15819433491974805
0.2908210566285628
-0.9169379203369727
-0.5660147330205925
0.5035547021451687
0.09138850810374621
-0.7979968245994159
-0.31204828265897044
-0.5315837113465206
0.25323047925508085
-0.44805071899069326
-0.32744296534517
0.004523261056320672
-0.332105184105527
-0.5877627677791496
-0.7390644338533645
-0.550005966181168
0.814366203630477
0.95667053062343
-0.6952028253730826
0.06737836206560921
0.8465738629656396
0.06454857813279748
-0.6710059193827878
-0.1686810797986738
0.491225444557872
-7.064589168761836E-4
0.5923787497287141
0.35713201991857324
0.10230551712593412
-0.016313118711313468
-0.11742452613678322
-0.7252094095293036
-0.049119222521780914
-0.6649119655752915
-0.32230532470709317
-0.8182646790662721
0.17302105734395037
-0.8254643071713956
-0.6387800085015187
0.6292058260811062
-0.9864865014434169
-0.4299482205810076
0.5219809077826815
-0.3688961997132432
0.8021723423058162
0.5591772426872595
-0.49826861710682196
-0.4629552218204684
0.5306790432016101
0.28888321466971084
0.7450147923921379
-0.027697054456175242
-0.5427989511292137
0.3275575511892483
-0.14536296077931057
-0.35580355841076367
-0.06633693069478719
-0.08608385980580091
0.605937638041032
-0.03373097496846755
0.4912961780039675
0.0933283810298855
-0.7328778039888396
0.19524678256755565
0.37422396422174664
0.6163758410203019
-0.7532443588458287
-0.7210270790651084
-0.8165284171316282
-0.8286697040647615
-0.7457099972288806
0.44543816940045455
-0.47844080635491276
-0.7813014602650422
-0.05588180437187245
-0.43942385158757924
-0.004431171346730246
0.5822047806748614
-0.04950433858443624
-0.3968050660013075
0.562149101390708
0.5074480441972671
-0.6093132489258175
-0.2792711415254392
0.30951729180621634
0.08219463075928068
-0.03554247124581389
0.8543719193211778
-0.09908504653663641
0.5080688157949151
-0.08494555558010664
-0.4647108308165244
-0.817064996333092
0.30938315130881555
-0.9174921591955715
-0.7293746779030053
0.6658871409984025
-0.6594687007158573
-0.8088305026498492
-0.6245885874065906
0.635768623122757
0.48533991361617984
0.15190376392117963
0.6827078388009965
0.02432759491168882
-0.9552939277294944
-0.11599570767217614
0.42070572083894286
-0.016549393874491034
0.6199918122218806
0.7218087102113542
0.4293333435894211
-0.728388200101914
-0.6445409815003664
0.523604051823882
0.804961427469693
-0.15546922008378639
0.2491749800964067
0.8847901637383586
0.3862720198842826
-0.6732200689309921
-0.1925371279439092
-0.1187623491050153
-0.6457072069147402
-0.30815316341371446
-0.18379832330332008
0.8364936432422567
-0.772845776752195
-0.9190398067671056
-0.3207469627673386
-0.6172311160486817
-0.4846817232944763
-0.04846930362234353
0.8415328057787401
-0.5304187781311902
-0.9626775746958541
0.14737944296629069
0.4446884455332709
-0.4468669022194156
-0.9279843284475289
-0.08596005627367997
0.9169879691661063
-0.1502720452216295
0.7019657966957147
0.26999829403295195
-0.300472222291728
0.889713804409004
0.2521881658518954
-0.33748740658510895
0.4511744245817486
-0.8686424902088545
0.06316270905266326
0.2908498411401106
0.5378802725879405
0.36018274623654667
0.8083667634525555
-0.7560662484067954
-0.7210809343888887
-0.8016304305479306
0.30665117780384604
-0.10336594699652628
0.036850146905637406
0.4493009669569347
0.9558210833788479
-0.12342790991803487
0.790737630515157
-0.2627021713479527
-0.7071219141404264
-0.45945927022181987
-0.7389840199280604
0.7802734447605515
0.18639223371174984
0.5019683528121415
-0.6158015265727639
0.5293036377992788
0.7080754318239721
-0.3853985415995713
0.6980147747347794
0.9801426229085117
0.10221053513260125
0.5207934612404299
-0.5105139674804884
0.6478481589405375
0.4583484653738806
0.863782737431791
-0.14303803608843427
-0.5853474737893134
0.011997510707120107
-0.6065482536973208
-0.9953677494135185
0.6433246661752785
0.25214006845737313
-0.5958967702014688
-0.7853586763097642
0.9219833753076259
0.06725887455454083
-0.7896291627844061
0.5670176960571718
0.5174628628029372
0.9508221717656464
0.6974565632010614
-0.3138839012322008
0.16844025646825744
0.4194098434205187
-0.6255319281727796
0.2602262440665586
0.3247814396560649
0.35003427101123785
-0.1852946447969106
-0.21938221321235685
0.07673513547383681
-0.3414905704525679
0.8843251258500064
0.3073201235058818
-0.6662823504639654
-0.8650432363256968
-0.25911052952722025
0.9760543337370209
-0.8273298784767213
0.1909038219248136
0.2258829564331899
0.43143647518583483
-0.30020064846225214
0.7743840468446315
-0.019639018112990625
0.40477495179543443
0.2558423013601816
0.7738991099963308
-0.619530062157762
-0.7495117705338179
-0.6561795781959852
-0.1409401244937729
0.2196582848580504
0.41337134927629093
-0.7304202392490315
0.8951727816195365
0.9569752101962858
-0.4803562995007211
-0.8407595685222775
-0.17900627025389992
0.3059321793204681
-0.9320865847539179
-0.24599282044357906
0.19332332867573276
-0.04401953824199811
-0.4581035131639084
0.18162007822358261
-0.5209288093417581
0.2987361154178225
0.17493201027742233
0.7650544425458119
0.614869637622868
0.17366182300012434
-0.432961055476047
0.852905116839374
0.35627076592022
0.852993074600257
-0.11153892479197625
0.6422195101815562
-0.49698657074194363
-0.24672510077200238
0.4993517016131588
-0.9866281004449586
-0.7862000289017297
0.7067402010647837
-0.5107594466968043
-0.4763125317172077
0.3169859549794464
0.8943537568428217
0.7375971183993765
-0.22674116633814234
0.791634449740254
0.4591409399291905
0.33297090163364484
-0.10839657852197225
0.15638368611054626
-0.7875802025533999
-0.5544203999262464
0.7624079749938883
-0.10843158226062632
0.4607627116281783
-0.39019400759422385
-0.7116632288392055
-0.16609858320325555
0.7972150427511997
-0.8637932498422274
-0.6983686271486768
-0.3168599575055699
-0.6765524922713935
0.211848238572395
-0.7454502515271326
0.661599032951983
-0.5625907114708842
0.8093755320204863
-0.5788974600857043
-0.9142654552867286
-0.9357986522849342
-0.41415426671344485
-0.35635342990365415
0.6302817466743279
0.9901808267256671
-0.5459663291410409
0.5908460150937492
-0.13190787457045017
0.8990355633829167
0.25434811154940096
-0.8730370483463157
0.8617072222009212
0.4309453652100528
0.40092606794090546
-0.668745345790825
-0.4033772553849746
-0.6610455177809491
0.9088313236209706
-0.5368469841135284
-0.4697719844654389
-0.06958610250477791
-0.8040967982057723
0.12914393647726988
-0.4620252093699901
0.5215138778098319
-0.10641743852617548
-0.9788146600063673
0.5031342249096061
-0.5521887829551285
0.15772937130150078
-0.15268718422194652
0.43445461513198896
-0.7087181015869163
-0.3701962901005575
-0.861531217671416
0.6432487480552621
0.4970579466422954
0.08173825368773689
-0.7917618339945364
0.9939573821622033
-0.33758848540628383
0.6359681604662493
-0.05385722640380197
0.7292454909520958
0.23482103262322962
-0.09080248500831312
-0.6201837090894186
0.9006914730173654
0.3360763519284993
-0.7574892226833677
-0.21669955920587008
0.8852745105976658
-0.6761487187638102
0.24218807099041476
-0.03963446066692601
-0.9891015745086248
-0.5638192038249789
-0.5239390748579481
-0.23597049755674945
-0.1927840669081289
-0.07028517209468593
-0.5534091955148736
-0.34709980073452446
-0.43266602367902846
0.20064367908932165
-0.15753898059691251
-0.2220865157683397
-0.45630002730609875
0.06977892111488979
0.8759686324867331
0.517010393390126
0.019506374511379265
0.6757259733694043
0.6099614546646166
0.11307495304065851
-0.033496368234711915
-0.8813121374407998
0.08468437593183498
0.7210364157085868
-0.049480424859004196
0.7182179546792586
-0.2528122703785265
-0.9261614111391949
-0.7197687494874763
0.8258430244175454
0.8841191688846526
-0.637929884091638
1.003750550008355
-0.05221968710518511
0.31705297392046816
0.3029576249882256
0.46327734929723124
0.46184678495050907
-0.01553509431632455
-0.033455237182411085
-0.736109251010301
0.4626647414145084
-0.8051081535459317
0.9556317764599074
-0.9584216959860952
0.46693660016362504
0.7228240970700217
0.7134458035880917
-0.29641275432304137
0.5438687242936214
-0.396363333349503
0.7043417343372856
-0.2795088206834415
0.915159434610313
-0.4661938947625235
-0.9559577095197217
0.08738693376899849
-0.25245333866825886
0.9123293635683772
-0.3509262775450632
-0.3722222097189426
0.854435290167574
-0.5683639199033221
-0.9517845332431578
0.5786811858940937
0.040261157565707695
-0.1781610617073616
-0.08705637847625518
-0.6063324398807529
-0.8163817970654432
-0.00466330992579711
-0.8164485065432718
0.32582541236550555
0.04994424433335132
0.1022025410352172
0.15886025148962207
-0.564617112052894
0.9808113010912894
0.5380241323071471
0.6174685215071367
-0.6303099239653838
0.016875998839636797
0.7607991923459854
0.5962973341374266
-0.03860641125604478
-0.893430841001111
0.0229093240196398
-0.21723631658512024
-0.7685493558765188
-0.8598345496980186
-0.3873788752277108
-0.9332163275325552
0.820200970239641
0.2828641850202647
-0.004052241509481277
-0.2110634599533718
-0.02930478496548376
0.8929082553003058
0.9592235999193723
0.3388693450526481
0.06493674197508525
-0.026004311965740046
-0.9987716318036837
-0.7976749139329569
-0.6284622678111943
0.10855494095844698
-0.5688852000867234
0.5147896322059357
-0.5445921565722317
-0.9520043342563695
0.43090202433072283
-0.9999353005418329
-0.5046785718398641
0.41998079055568766
0.8882371889426728
-0.7055893194419568
-0.6571398854509578
0.9647894052843846
-0.2684311907317877
-0.6574513709489039
-0.8120607259294629
0.7631378872890453
-0.29082991788758566
0.07341605307340524
0.9608974058474711
0.6815317241646496
-0.553074545670635
-0.6413316077019047
0.18352644637954274
0.005215037262993993
0.5061847252127623
-0.2241747476701041
-0.7215083563947652
-0.21127459458752973
-0.518280222781685
0.530515074111452
-0.5479499336239894
0.6583258568853549
0.6851620552569075
0.9713119008876698
-0.729854782414302
0.4943334894341919
-0.6837482909746606
0.49710101792996253
-0.4105165628915081
-0.36874117586912647
-0.8122935086677501
-0.6913402628651771
0.5709652835453395
0.7281308133346837
-0.5609124886727771
-0.799880148194947
0.5977562958787525
0.7966663049623369
-0.06479689789899643
-0.6828824961303175
0.9127404146498199
0.07882086581552339
0.8430380689075145
-0.7486565700490057
0.2770699255799843
-0.6121143979150921
-0.2053988471546241
-0.7198397422263029
-0.27642158156303687
-0.40270215154670996
-0.008092583014277335
-0.7265975707953755
-0.5738853186361442
0.7464695609612944
-0.4490336250780138
-0.2752522895147188
1.0225065871455952
-0.6427207896951281
0.9358960479570588
0.06720474953424073
-0.27812084685381167
0.5513678426568052
0.9538959598624372
0.17754526204299165
0.41237898880458057
-0.9327203279470394
0.31946377876341564
0.09356947383335679
0.2633637725604545
-0.24497657493214486
-0.1300382109167843
0.4180230053496788
-0.4082179215164996
0.576861545514932
0.5567240493373787
-0.9978388887474278
0.40670042415945784
0.5212418894981325
-0.48944770548039307
-0.8511942540391613
0.26693784163479894
0.554664972824128
0.5960751672759488
-0.32178647340763966
0.7655107341288009
0.43105648127160284
0.6640204018713001
0.7965120707073613
0.5532890415031805
0.5239826152037784
0.7047439678737717
-0.4236601686277312
0.4482190880548798
0.24632388836336894
-0.9474129338638932
-0.4723436971627193
0.980375165365386
-0.26823792782367417
-0.6804093577733078
0.12187646042086783
-0.5353617003061908
-0.3585783877905693
0.5476181458018655
-0.43820877650004747
-0.539899856192254
-0.413781596323771
-0.7724301881305072
-0.013450486159459095
0.5394475956704892
-0.5581320998160721
0.14692003856376246
0.9037509451129292
0.4563444746573333
0.32734321172477104
0.006120223137418075
-0.8472195541461068
0.027271901621012902
-0.8770459984613325
-0.9649978557127907
0.5623324927832279
-0.29270399009476705
0.9475553111542351
-0.823095095022479
0.281536310425065
0.6888485781418385
0.2975236675673183
0.03198872288869841
0.1813729402346542
0.6090403560745332
-0.8994934626316945
0.20288705835232193
0.8556518591813126
0.6471766179405156
-0.6891741483847953
-0.9353854537874576
0.1389856595971868
-0.3452963905819131
0.42885253342857116
-0.9590524892878566
-0.07005204758019667
-0.4404988822733204
0.7691353154473395
-0.3437136216056531
-0.11958585472387544
0.6530055686976661
0.6364237465596626
-0.35396817937331687
0.08453557001050142
-0.32457286717651496
0.603302604479091
-0.6361862188798109
0.13009767213457812
-0.9944450640852756
-0.6249404986926892
-0.8389012342455158
-0.44773324446945306
0.12300296905761557
-0.07376766729558175
-0.751800282489501
0.209492989924754
-0.9131702327797174
-0.2123625833125286
-0.4018561204439228
-0.8529646012142278
0.7586534328446243
-0.9214656354194573
-0.851932539733691
0.28930651372839095
-0.42956810867635353
1.0391686694299358
0.9667837795465236
0.7338384655411565
1.0908442151439712
-0.11651003421938873
-0.8043560846517612
-0.8480453770295735
-0.19313178829021657
0.8720603678245034
0.08720820430178848
-0.7048943389645326
0.3925703142601309
-0.9881034872822414
-0.0019059766619722307
-0.35322276086613824
0.17289675454286063
-0.1439826891586325
0.45226058634756866
-0.08285907921137434
0.7096766831123785
-0.9963244845323892
0.1587431957914306
-0.2620068278996784
-0.65546529711572
0.4514632932738341
0.3510933238644147
-0.22874691332590533
-0.6666544690473105
0.9996443971818798
-0.44710637920922136
-0.7786294156562126
1.077975801945887
-0.641944627881598
0.46008769937110366
-0.6656716831230497
0.8194141049302667
0.738791402885421
0.7426008614489816
-0.17893008621625905
-0.5313505296448107
-0.1838825766326022
-0.06915967201039419
-0.9586307893609493
-0.9744779504560196
0.07502366226271501
0.373769234100405
0.1583625494116163
0.17968416808718624
0.6098070312443045
0.7674738527002688
0.2442419961671077
0.3334285623817128
-0.5463447920688537
0.8425213606905066
-0.8356573126589775
-0.463811857609619
0.6284089055315397
0.009273159346550377
0.1724308222774896
-0.6521204200342084
0.8780697016409827
0.49091054635835557
-0.3919392806367888
0.16414672154188592
-0.8160674510970574
-0.20239731491295876
0.7822751030212727
0.371077551480846
-0.08403847384868479
0.42658877358703795
0.02724748814808704
-0.6393877099709516
0.6306753922581143
-0.7550086669678416
-0.17763329607311876
0.5548471336215139
0.32419457819588676
-0.3165942277121861
-0.3433791747847713
-0.6743153056389444
-1.1046470006195392
0.5538772379800159
-0.1306249201481662
0.32985782338387926
0.7663423936291863
0.7237441946399978
-0.3620302078198054
-0.2071956669864111
0.8236909107111111
0.6154530882916358
0.36720681615980943
0.8836552284315858
-0.7683770955638636
-0.6923310055176377
-0.6522304224810875
-0.4248347109151396
0.5393767196209944
-0.8407872166407465
0.41028256806417807
-0.8533810534601417
-0.2500888619503093
-0.37476898904357214
-0.8418450042511261
0.3025159041830784
0.23449685486572083
-0.7622649268247026
-0.578215824078068
0.40555284249291584
0.7792812101003553
-1.0202474452114918
0.23673249578988306
-0.7761494086495042
0.13793139931183498
-0.18874589525140942
-0.7036872807579837
-0.6309523666106197
-0.5156711154198292
0.5423537212158186
-0.9808376129434574
0.39375199937110367
0.6410958447207399
-0.5713943185328969
-0.5950658286116726
0.33050606625589607
0.26473156287668576
0.7718655643745616
0.6193391173241581
0.8391602126882814
0.543406239889709
-0.668594320939256
0.5364496454457481
-0.11788798638717789
-0.5201387116178652
0.051659546400729194
-0.4900243996186414
0.5031974943998644
0.7408082047386068
0.22869005823728675
-0.8402264333372117
0.22848876668893994
-0.20565789087712025
-0.8327156352600605
-0.6240805093543886
-0.8362600439675012
0.4332369922275752
-0.08590044075111516
0.7289755233541908
0.9541295067046226
-0.7462231729908675
-0.39338109407010946
0.553582464370191
0.5625674912876557
0.38647335414967365
0.9949077753038921
-0.802580914311582
-0.7904993526497829
0.39180068811598046
0.3708779526487677
-0.425991854315502
0.3081208666197628
0.28381938103541854
-0.08787923436772192
-0.20965795166474324
-0.4558176249845695
0.7735865603338433
-0.33987203143930134
0.13139633643936247
-0.05274486846799734
0.36867136819682983
0.8896116714855141
-0.5447392541304662
-0.3230548074120916
-0.4712423538485923
-0.8507883426197188
0.3070185760551629
-0.06459104877191246
-0.7300743949498852
-0.7460483160679692
0.8313704223429206
0.715141228390215
0.6695974263148927
0.9186494846781353
-0.234322161092492
-0.3508602561666008
-0.7086369520957687
-0.0923000777201484
-0.5429123232570859
0.04151933177569917
0.9382164917996524
0.4160072761936868
0.4765533419335077
0.4456911779684667
0.8542975835804255
0.7625715027717553
0.892849492802412
-0.09129412740667346
0.18123858820465338
-0.20097627354822709
-0.07072763127782038
-0.7255761419525583
0.1584982936354644
-0.27843896761596915
0.41378020816661926
0.7877132630288906
0.45985840318771865
-0.05967908039620351
0.5176234318443915
-0.42637001890860105
0.03437069692611083
0.42126618488723744
-0.35248025870703553
-0.656459781358166
-0.7440470942278725
-0.6624242775568381
0.2288719205675086
1.0341214563969325
-0.241779506976162
-0.4197488455630602
0.37527552601161945
0.8097127224191751
0.33662015478200386
0.3768043133774292
0.8784057828001388
-0.9024432600257541
0.7370091941883787
-0.9549375476253906
-0.005651115634770614
-0.9702514909591708
0.4755446359161401
0.5649327946129575
0.9225213598752922
-0.8308398126231467
-0.43780410052620056
0.7047475405076258
-0.21348530523100262
0.6111026611161461
0.41782966460762894
-0.32788436556388634
0.4810385991154189
0.8071062391433054
0.0321024134641728
-9.271761068982613E-5
-0.42936556624110767
-0.15838245566511103
-0.2788262826959478
-0.34423840079288387
0.7518303077597744
-0.27703420283220465
0.8866454654577689
-0.00366425598866246
-0.5234764468856095
-0.23410652911131377
-0.5566024137594328
-0.4096942289924798
1.0090449448363508
-0.9517818441128832
0.509133746940142
0.9505506121537377
-0.5640746389861888
0.9025472037914972
-0.5200855728652063
-0.5142331990106594
-0.15814097526257798
0.8385013924080218
0.2011530542445239
-0.2908899793067907
-0.34318000640514157
-0.9559067967528831
-0.7786892348200213
0.9109465486443694
-0.7202566005463499
0.7049698102624449
0.9268072625229883
0.3137569515253558
-0.3702229226830464
0.29533013600696373
-0.9156981304761794
-0.06099529789973121
-0.7338158630637973
0.39607456951649356
-0.6135948350640729
-0.8857237442125114
0.9902502145892507
0.5328970014009049
0.05916554242078396
0.9579348191602246
0.6378092463897684
0.2606471860654629
0.14175800272334604
-0.986293237274958
-0.5353869868301431
0.5173385865805258
0.17208532585371228
0.924776319507286
0.4148446360061351
-0.5215838555314247
0.18304769368216928
-0.6755028410650158
0.6177720330161662
0.2373442622902506
0.8975737847407609
-0.29365084896292215
-0.33371462458843837
0.026662493619516763
-0.27125236949691606
-0.09676745658246524
0.136914000395946
-0.02136916661362052
0.5065901423796644
0.9225515127250679
0.15389414462834097
0.3573755529386544
0.38307721546871853
0.1680214069587973
0.25299665654739845
-0.284422925910079
0.08835340534278324
0.7919275599363351
0.640500781173488
-0.592325766705756
0.009167352719933408
0.1643044107389131
0.7990989121172698
-0.25268603034794435
0.8029747699997416
-0.3679843467233326
0.16120354866222208
0.34446896207887434
0.22221952292231784
-0.7145460255635899
-0.23192718271267546
0.5006913326821558
0.6600547437233459
-0.3129925106716777
0.13561080598207245
-0.5979401318925704
0.2108823013738128
0.5826444610767423
0.8012210310608072
-0.8150927816290223
0.5045601351099098
-0.5518665563082086
0.09554736842591205
0.5963837361796571
-0.909293495731988
0.014616646148749135
0.10901320891224775
-0.5238831402325499
0.7296070245426112
0.925887393168118
-0.8188753174426597
0.22140382072920595
0.5888087993206339
-0.9667156867130597
0.5838633471050234
-0.18013847850405873
-0.9504352667861073
0.944558242656135
-0.373269228950601
-0.8321820873927233
0.5948684451731086
0.011827650891883312
-0.06649792031774893
0.9933501570784717
0.08089849461016496
0.10585230354919539
-0.7440162685878215
-0.10376269176175579
0.586269567954421
0.2445565338654183
-0.13610045086273836
-0.23095081367436854
-0.011435522638376439
-0.5730621139298067
0.28635641526582334
-0.8219547152388638
0.43520165905383346
0.8691994540209047
-0.020830715734019067
0.15951159463965592
-0.044231508770577355
-0.7518531204523968
0.3536536475354244
0.326615450537566
0.6055301511426661
-0.47240424896098965
0.5263214078485414
0.18381256767179477
0.734901950627215
-0.5232642338185434
0.13524405951901008
-0.8897072760885221
0.247250307840722
0.08510370229311848
0.6176763178052098
0.6009041097619887
-0.9625332298239921
0.737018704854427
0.45485924782093434
0.042449615891435366
0.19633659698992068
-0.7709632010995693
-0.9362472652640437
0.5552009530278348
-0.9791978144559468
0.4971853885984201
0.251773068000513
0.243930142248878
0.38779987395989535
0.26644087063097177
-0.5505589342263448
-0.42028939213779726
0.6298860079032601
0.7435788576808153
-0.7023585759278373
0.5739612901697506
-0.30992773520283823
0.9415281904698319
-0.40834663673031635
-0.09798262021927209
-0.950780263652956
0.27465869278481536
0.039634676962462895
0.23016066656542572
0.6772539833423968
0.6033834242278255
-0.026379172291800534
-0.5015503470131384
0.029344651181703485
-0.8413943796297247
-0.5311733187093222
-0.5457462235068926
0.27738666221472474
0.4720377228752115
